svm_type c_svc
kernel_type rbf
gamma 8
nr_class 2
total_sv 6831
rho -0.291987
label 1 0
probA -2.16403
probB -0.51158
nr_sv 3953 2878
SV
1.540156210246842 1:0.984533 2:0.0518162 3:-0.00583251 4:-0.0522086 5:0.949723 6:0.538016 7:0.17383 8:-0.025032 9:-0.965294 10:-0.965676 11:-0.987435 12:0.979396 13:0.942152 14:-0.969611 
2 1:-0.98043 2:-0.251963 3:-0.0785646 4:-0.0753257 5:-0.0779652 6:0.181322 7:0.17383 8:-1 9:-0.999563 10:-0.999937 11:-0.999949 12:0.90909 13:-0.384616 14:-0.999973 
2 1:0.82627 2:-0.263059 3:-0.217838 4:0.747357 5:0.95561 6:-0.495172 7:-0.10572 8:-0.294698 9:-0.949373 10:-0.985213 11:-0.993263 12:0.960908 13:0.943542 14:-0.943988 
0.7572336490328357 1:0.655927 2:-0.662096 3:-0.0876755 4:0.714286 5:0.943773 6:-0.993081 7:0.873655 9:-0.99838 10:-0.999991 11:-0.997817 12:1 13:0.951002 14:-1 
2 1:-0.214831 2:-0.262849 3:-0.0864526 4:0.321969 5:0.572312 6:0.106452 7:0.507375 8:-1 9:-0.996807 10:-0.999213 11:-0.99911 12:0.954546 13:0.88718 14:-1 
2 1:-0.375324 2:-0.250497 3:-0.0493535 4:-0.0232143 5:0.441779 6:-0.263682 7:0.507375 8:-1 9:-0.999592 10:-0.99985 11:-0.999679 12:0.916666 13:0.943662 14:-1 
2 1:0.787995 2:-0.123417 3:-0.269506 4:7.42857e-05 5:0.875181 6:-0.681636 7:0.873655 8:-0.615456 9:-0.889973 10:-0.988298 11:-0.863564 12:-0.191686 13:0.882298 14:-1 
2 1:0.473936 2:-0.561394 3:-0.242455 4:0.523934 5:0.825001 6:-0.679972 7:0.710322 8:-0.418 9:-0.965992 10:-0.995158 11:-0.9667 12:0.950938 13:0.943878 14:-1 
1.906673304323326 1:0.210008 2:-0.168429 3:-0.141532 4:0.656543 5:0.944822 6:0.49642 7:-0.267431 8:-1 9:-0.984794 10:-0.991807 11:-0.996709 12:0.95204 13:0.955182 14:-0.99437 
2 1:0.855399 2:-0.132838 3:-0.0145241 4:0.563126 5:0.958044 6:-0.846842 7:0.381019 8:-1 9:-0.982009 10:-0.99828 11:-0.981611 12:0.967964 13:0.955018 14:-1 
2 1:-0.0959941 2:-0.589239 3:-0.199948 4:0.47828 5:0.750589 6:-0.56383 7:0.507375 8:-0.218944 9:-0.988165 10:-0.99711 11:-0.989057 12:0.948228 13:0.942486 14:-1 
0.636001903600419 1:-0.041531 2:-0.3311 3:-0.0713952 4:0.130603 5:0.672494 6:0.52237 7:0.873655 8:-1 9:-0.995407 10:-0.99848 11:-0.999446 12:0.949542 13:1 14:-0.998931 
2 1:0.225679 2:-0.317073 3:-0.0809606 4:0.184854 5:0.174783 6:-0.462236 7:0.0147391 8:-1 9:-0.98859 10:-0.998498 11:-0.995259 12:0.951808 13:0.92233 14:-1 
0.7003846189893336 1:0.954519 2:-0.0019889 3:-0.027804 4:-0.187391 5:-0.0569341 6:-0.306584 7:0.710322 8:0.017024 9:-0.975466 10:-0.9899 11:-0.97902 12:0.999272 13:0.982744 14:-0.994691 
0.1314282492770214 1:0.990302 2:0.341987 3:0.236842 4:0.674263 5:0.948887 6:-0.066754 7:0.950257 8:-0.00773 9:-0.933806 10:-0.954509 11:-0.948614 12:0.94545 13:0.94735 14:-0.958752 
1.221474261445391 1:0.805134 2:-0.0463729 3:-0.170119 4:0.655706 5:0.934503 6:0.265054 7:-0.0644836 8:-1 9:-0.97404 10:-0.981665 11:-0.989348 12:0.952044 13:0.946406 14:-0.990722 
2 1:0.750992 2:-0.314561 3:-0.164365 4:0.394903 5:0.92751 6:-0.925089 7:0.950257 8:-0.438506 9:-0.965992 10:-0.99801 11:-0.973826 12:0.93988 13:0.95238 14:-0.999512 
0.874778035817133 1:0.461951 2:-0.450016 3:-0.222782 4:0.628074 5:0.922483 6:-0.381756 7:-0.0147381 8:-0.175384 9:-0.974276 10:-0.990981 11:-0.97904 12:0.961522 13:0.954636 14:-1 
2 1:0.847255 2:-0.175756 3:-0.0219964 4:-0.163211 5:0.89426 6:-0.793866 7:0.710322 8:-0.301952 9:-0.955501 10:-0.995915 11:-0.943927 12:0.958464 13:0.939758 14:-1 
1.328453292678792 1:0.909011 2:-0.0430231 3:-0.140792 4:0.6836 5:0.957227 6:-0.815601 7:0.507375 8:-0.394026 9:-0.955399 10:-0.995738 11:-0.94094 12:0.951314 13:0.954456 14:-0.999475 
0.008217228140179498 1:0.998494 2:0.957291 3:-0.0748058 4:0.437217 5:0.90375 6:-0.993587 7:0.594104 8:0.006802 9:-0.938084 10:-0.999695 11:-0.908419 12:0.973684 13:0.952936 14:-0.999826 
0.9027026547415882 1:0.121598 2:-0.258662 3:-0.13059 4:0.548571 5:0.812307 6:-0.061158 7:0.391157 8:-1 9:-0.993199 10:-0.99776 11:-0.997436 12:0.974312 13:0.9629 14:-1 
2 1:0.909667 2:-0.0800796 3:-0.0970912 4:0.659423 5:0.92504 6:-0.933522 7:0.710322 8:-0.42201 9:-0.962474 10:-0.998523 11:-0.947912 12:0.965812 13:0.943394 14:-1 
2 1:0.325819 2:-0.16466 3:-0.118475 4:0.646826 5:0.930153 6:-0.575368 7:-0.0644836 8:-1 9:-0.989894 10:-0.998111 11:-0.991491 12:0.940476 13:0.952182 14:-1 
0.88782722764544 1:0.87018 2:-0.415681 3:-0.14384 4:0.725531 5:0.950128 6:-0.576214 7:0.544362 8:-0.096918 9:-0.950349 10:-0.98697 11:-0.948578 12:0.96933 13:0.95359 14:-0.998357 
1.290246523471393 1:0.505214 2:-0.577096 3:-0.281211 4:0.43202 5:0.827504 6:-0.366164 7:-0.524091 8:-0.2588 9:-0.954215 10:-0.984144 11:-0.965889 12:0.956612 13:0.934884 14:-1 
0.8490815457511266 1:0.510206 2:-0.527478 3:-0.548475 4:0.0485571 5:0.14316 6:-0.248206 7:0.923397 8:-0.248692 9:-0.950333 10:-0.977281 11:-0.949332 12:0.75885 13:0.928764 14:-0.991898 
2 1:0.670422 2:-0.292788 3:-0.228644 4:0.596183 5:0.807914 6:-0.309062 7:0.381019 8:-0.091222 9:-0.968238 10:-0.986802 11:-0.974128 12:0.960384 13:0.94587 14:-0.999613 
0.73693894588005 1:0.32285 2:-0.312049 3:-0.0511089 4:-0.198903 5:0.0912432 6:0.259952 7:0.507375 8:-1 9:-0.988475 10:-0.996327 11:-0.997032 12:0.985362 13:-0.03962 14:-0.998468 
2 1:-0.272181 2:-0.359573 3:-0.0712677 4:0.469334 5:0.679062 6:0.263724 7:0.873655 8:-1 9:-0.996682 10:-0.998923 11:-0.999312 12:0.933334 13:0.95 14:-0.999579 
2 1:0.859258 2:-0.231236 3:-0.0221744 4:0.669877 5:0.940901 6:-0.840814 7:0.507375 8:-0.432716 9:-0.955338 10:-0.996101 11:-0.947872 12:0.949002 13:0.9539 14:-0.997685 
1.500155498519914 1:-0.231201 2:-0.277714 3:-0.0729452 4:0.383717 5:0.441949 6:-0.03553 7:-0.10572 8:-1 9:-0.997962 10:-0.999696 11:-0.999327 12:0.978494 13:0.986206 14:-1 
0.2125208561844208 1:1 2:1 3:0.069233 4:-1 5:0.963838 6:-1 7:1 8:-1 9:-0.95048 10:-1 11:-0.997935 12:-1 13:0.963048 14:-0.927408 
0.4150177273832553 1:0.978269 2:-0.0643777 3:0.290794 4:0.679766 5:0.946788 6:-0.641392 7:-0.267431 8:-0.011546 9:-0.923818 10:-0.978683 11:-0.916142 12:0.960082 13:0.957388 14:-0.980744 
2 1:0.0862267 2:-0.159636 3:-0.207408 4:0.536343 5:0.843847 6:-0.500064 7:0.786915 8:-1 9:-0.985958 10:-0.996756 11:-0.987586 12:0.967782 13:0.950054 14:-1 
2 1:-0.137933 2:-0.36376 3:-0.0611225 4:-0.159663 5:0.347362 6:0.620846 7:0.391157 8:-1 9:-0.997681 10:-0.999033 11:-0.999746 12:0.984314 13:0.964912 14:-0.999492 
2 1:-0.410062 2:-0.179734 3:-0.151793 4:0.51276 5:0.718942 6:-0.06487 7:0.873655 8:-1 9:-0.99311 10:-0.997126 11:-0.996578 12:0.975342 13:0.939318 14:-1 
2 1:-0.639131 2:-0.375903 3:-0.0637188 4:-0.00248571 5:0.302484 6:0.343442 7:0.873655 8:-1 9:-0.998804 10:-0.99971 11:-0.999808 12:0.982608 13:0.90909 14:-0.999855 
2 1:0.540203 2:-0.411494 3:-0.166886 4:0.569326 5:0.786731 6:-0.669174 7:0.391157 8:-0.20556 9:-0.960844 10:-0.991374 11:-0.966317 12:0.954732 13:0.924084 14:-1 
2 1:0.420341 2:-0.303256 3:-0.181227 4:0.568589 5:0.889004 6:-0.726246 7:-0.0644836 8:-0.304928 9:-0.969581 10:-0.995922 11:-0.967051 12:0.948204 13:0.943006 14:-1 
0.6340071687917118 1:0.343366 2:-0.529572 3:-0.0436491 4:-0.173046 5:0.955112 6:-0.711322 7:0.923397 8:-0.448444 9:-0.965696 10:-0.996957 11:-0.953817 12:1 13:0.94883 14:-1 
2 1:0.503516 2:-0.36041 3:-0.198582 4:0.579874 5:0.875726 6:-0.892243 7:-0.524091 8:-0.558824 9:-0.971865 10:-0.998477 11:-0.967359 12:0.961326 13:0.94856 14:-1 
2 1:0.953216 2:-0.0258558 3:-0.0261147 4:0.511 5:0.809013 6:-0.214438 7:0.17383 8:-0.04803 9:-0.966665 10:-0.983272 11:-0.9737 12:0.941372 13:0.917826 14:-0.990323 
2 1:-0.10086 2:-0.203182 3:-0.194605 4:0.570863 5:0.849283 6:-0.3203 7:0.391157 8:-1 9:-0.988098 10:-0.996778 11:-0.991764 12:0.940594 13:0.949422 14:-1 
2 1:0.668342 2:-0.235423 3:-0.0604793 4:0.633057 5:0.924157 6:0.409996 7:0.786915 8:-1 9:-0.961 10:-0.978541 11:-0.990529 12:0.957298 13:0.953854 14:-0.985886 
2 1:0.998455 2:0.933005 3:-0.071904 4:0.411906 5:0.953246 6:-0.998837 7:0.710322 8:-0.333334 9:-0.936109 10:-0.999954 11:-0.906122 12:0.833334 13:0.950934 14:-0.999996 
0.7511856275006242 1:0.447647 2:-0.679263 3:-0.372283 4:0.311071 5:0.702394 6:-0.498758 7:-0.524091 8:-0.3677 9:-0.960707 10:-0.993308 11:-0.959585 12:0.932406 13:0.910428 14:-1 
0.8778022279605585 1:0.460205 2:-0.61164 3:-0.256733 4:0.655811 5:0.891345 6:-0.569556 7:-0.0147381 8:-0.268668 9:-0.968066 10:-0.992267 11:-0.971762 12:0.958708 13:0.949638 14:-1 
2 1:0.0984381 2:-0.3311 3:-0.0633024 4:0.172949 5:0.304227 6:-0.401122 7:0.786915 8:-1 9:-0.998526 10:-0.999731 11:-0.999196 12:0.978724 13:0.46114 14:-1 
0.7047454128353466 1:0.993649 2:0.202973 3:0.0826556 4:0.442723 5:-0.135523 6:-0.989269 7:0.873655 8:-0.013824 9:-0.948326 10:-0.999524 11:-0.999891 12:1 13:-0.357142 14:-0.921237 
2 1:0.334267 2:-0.133466 3:-0.11493 4:0.424551 5:0.718587 6:-0.671782 7:0.507375 8:-1 9:-0.988717 10:-0.998359 11:-0.990807 12:0.964194 13:0.948932 14:-1 
2 1:0.777789 2:-0.133466 3:-0.251441 4:0.743386 5:0.94471 6:0.281184 7:0.381019 8:0.196316 9:-0.950878 10:-0.953558 11:-0.977361 12:0.960252 13:0.94675 14:-0.959663 
0.7393039945498835 1:-0.117847 2:-0.330681 3:-0.0678671 4:0.659934 5:0.928287 6:0.028978 7:-0.10572 8:-1 9:-0.992462 10:-0.998366 11:-0.99818 12:0.967442 13:0.94015 14:-1 
0.02307604099711399 1:-0.0131665 2:-0.255941 3:-0.0821574 4:0.349631 5:0.740999 6:-0.17011 7:0.873655 8:-1 9:-0.995394 10:-0.999242 11:-0.998759 12:0.956896 13:0.964412 14:-1 
1.329416237131187 1:0.991778 2:0.00324505 3:-0.0748625 4:0.54632 5:0.922858 6:-0.992575 7:0.710322 8:-0.01099 9:-0.95128 10:-0.999735 11:-0.930444 12:0.979798 13:0.948506 14:-0.999866 
2 1:0.730745 2:-0.29844 3:-0.155622 4:0.6708 5:0.948471 6:-0.694804 7:0.594104 8:-0.355248 9:-0.956946 10:-0.993008 11:-0.948851 12:0.967194 13:0.95094 14:-1 
2 1:0.9914 2:0.0735894 3:-0.0683479 4:0.646154 5:0.9574 6:-0.99977 7:0.507375 8:-0.371428 9:-0.957332 10:-0.999889 11:-0.935624 12:1 13:0.951648 14:-1 
2 1:0.540576 2:-0.165498 3:-0.112315 4:0.575886 5:0.905845 6:-0.760252 7:0.507375 8:-0.21466 9:-0.986937 10:-0.998472 11:-0.983399 12:0.905292 13:0.938884 14:-1 
2 1:0.461182 2:-0.625877 3:-0.140036 4:0.489597 5:0.893858 6:-0.811089 7:-0.10572 8:-0.287234 9:-0.968551 10:-0.997058 11:-0.968248 12:0.954708 13:0.948718 14:-1 
1.337415729181069 1:0.974965 2:-0.226002 3:0.00385482 4:0.422869 5:0.946111 6:-0.35615 7:0.381019 8:0.03716 9:-0.966171 10:-0.984767 11:-0.994806 12:0.96502 13:0.931734 14:-0.962619 
1.148030407076547 1:-0.502796 2:-0.323982 3:-0.105786 4:0.491337 5:0.826903 6:-0.161152 7:0.873655 8:-1 9:-0.994293 10:-0.998559 11:-0.997446 12:0.97254 13:0.939286 14:-1 
0.6701884611875796 1:0.815305 2:-0.254266 3:-0.124112 4:0.593426 5:0.938172 6:-0.949847 7:1 8:-0.015432 9:-0.958639 10:-0.99858 11:-0.969416 12:0.954546 13:0.94519 14:-1 
2 1:0.808159 2:-0.184759 3:-0.0168917 4:0.66764 5:0.901558 6:0.16464 7:0.544362 8:-1 9:-0.981297 10:-0.987813 11:-0.990307 12:0.950052 13:0.919024 14:-0.996957 
2 1:0.581647 2:-0.248194 3:-0.174439 4:0.223829 5:0.541636 6:-0.849608 7:0.17383 8:-0.363284 9:-0.978838 10:-0.998328 11:-0.975456 12:0.924528 13:0.96714 14:-1 
0.2569053678497527 1:0.872229 2:-0.153983 3:-0.122607 4:0.426911 5:0.958369 6:-0.3967 7:0.950257 8:-0.026898 9:-0.942339 10:-0.971237 11:-0.954764 12:0.520962 13:0.951718 14:-0.979071 
0.2372155522714895 1:0.391343 2:-0.194389 3:0.150244 4:-0.178 5:0.890515 6:0.156148 7:0.507375 8:-1 9:-0.973485 10:-0.994589 11:-0.985106 12:1 13:0.945094 14:-0.995634 
2 1:0.255975 2:-0.587145 3:-0.0839387 4:0.316 5:0.148068 6:-0.698116 7:0.314554 8:-0.17321 9:-0.992261 10:-0.998433 11:-0.991753 12:0.948572 13:0.975582 14:-1 
0.7170437363358808 1:0.59846 2:-0.166754 3:-0.160259 4:0.280303 5:0.0232192 6:-0.190208 7:-0.10572 8:-1 9:-0.97806 10:-0.992748 11:-0.989144 12:0.957446 13:0.68448 14:-1 
2 1:0.477678 2:-0.357689 3:-0.34153 4:0.179926 5:0.8824 6:-0.471194 7:0.873655 8:-0.317896 9:-0.960636 10:-0.991653 11:-0.968514 12:0.94339 13:0.909276 14:-0.999958 
2 1:0.855985 2:-0.186643 3:-0.085788 4:-0.333254 5:0.562248 6:-0.972903 7:0.873655 8:-0.492402 9:-0.971377 10:-0.999078 11:-0.96493 12:0.037344 13:0.904034 14:-1 
2 1:0.949383 2:-0.0384173 3:-0.0684287 4:-0.0383257 5:0.99221 6:0.962662 7:0.594104 8:-1 9:-0.998737 10:-0.998793 11:-0.999972 12:0.973118 13:1 14:-0.998681 
2 1:0.510301 2:-0.15838 3:-0.184104 4:0.487774 5:0.685221 6:-0.379238 7:0.786915 8:-1 9:-0.985601 10:-0.995823 11:-0.988146 12:0.950748 13:0.952618 14:-1 
0.9787800268026667 1:0.994687 2:0.678635 3:-0.0716604 4:0.645377 5:0.907273 6:-0.999584 7:0.950257 8:-0.4 9:-0.948897 10:-0.999975 11:-0.92627 12:1 13:0.950908 14:-0.999988 
2 1:0.661774 2:-0.435361 3:-0.182628 4:0.62078 5:0.923141 6:-0.923871 7:0.594104 8:-0.61067 9:-0.96241 10:-0.998493 11:-0.952074 12:0.963636 13:0.948046 14:-1 
1.197164555394797 1:0.128956 2:-0.362295 3:-0.0553489 4:-0.214357 5:0.841324 6:-0.64185 7:0.873655 8:-1 9:-0.978273 10:-0.997712 11:-0.976506 12:1 13:0.93708 14:-1 
2 1:0.953533 2:-0.0472103 3:-0.090463 4:0.657726 5:0.934048 6:-0.966404 7:0.507375 8:-0.406562 9:-0.954276 10:-0.999011 11:-0.936677 12:0.942858 13:0.94527 14:-1 
1.583849661781736 1:0.888235 2:-0.560557 3:-0.00123078 4:0.614626 5:0.808051 6:-0.77601 7:0.74731 8:-0.264478 9:-0.944087 10:-0.99281 11:-0.943605 12:0.941666 13:0.950558 14:-0.999766 
0.2471459717591606 1:0.000438448 2:-0.238983 3:0.0181481 4:0.664371 5:0.926673 6:0.214162 7:0.594104 8:-1 9:-0.963826 10:-0.988957 11:-0.991291 12:0.953788 13:0.959652 14:-0.997018 
0.8642891764526115 1:0.334683 2:-0.104784 3:-0.113799 4:0.222249 5:-0.176991 6:0.505156 7:0.391157 8:-1 9:-0.994769 10:-0.997509 11:-0.998714 12:0.946018 13:0.98746 14:-0.998359 
0.2609311519602967 1:0.985045 2:0.473883 3:0.0171609 4:0.0229343 5:0.900028 6:-0.970893 7:-0.267431 8:0.208634 9:-0.976761 10:-0.999439 11:-0.966992 12:0.918368 13:0.943182 14:-0.999829 
2 1:0.281206 2:-0.212813 3:-0.136644 4:0.389666 5:0.673018 6:-0.433494 7:0.544362 8:-1 9:-0.988398 10:-0.998214 11:-0.993039 12:0.977492 13:0.903312 14:-1 
2 1:0.674194 2:-0.455668 3:-0.162058 4:-0.196903 5:0.495871 6:-0.785772 7:0.873655 8:-0.387648 9:-0.970066 10:-0.996082 11:-0.965947 12:0.906392 13:0.375362 14:-1 
2 1:0.600131 2:-0.482257 3:-0.415699 4:0.532943 5:0.520648 6:-0.092592 7:0.507375 8:-0.016472 9:-0.961447 10:-0.975192 11:-0.975896 12:0.928862 13:0.899188 14:-0.982202 
2 1:-0.139943 2:-0.213231 3:-0.0918769 4:0.0555114 5:0.672225 6:-0.305986 7:-0.0644836 8:-1 9:-0.997005 10:-0.999362 11:-0.998557 12:0.990476 13:0.908602 14:-1 
0.2497506754374501 1:0.989104 2:0.0375798 3:-0.0190023 4:0.480054 5:0.951493 6:0.596358 7:0.873655 8:-0.01181 9:-0.934556 10:-0.927479 11:-0.980885 12:0.947174 13:0.961718 14:-0.927217 
2 1:0.205532 2:-0.15482 3:-0.135637 4:0.486694 5:0.75021 6:-0.488274 7:-0.267431 8:-1 9:-0.991799 10:-0.998443 11:-0.992849 12:0.958834 13:0.954256 14:-1 
1.680513898149003 1:-0.474019 2:-0.198995 3:-0.0710409 4:-0.126563 5:0.580487 6:0.959176 7:0.314554 8:-1 9:-0.997563 10:-0.999434 11:-0.999979 12:0.992396 13:1 14:-0.999407 
0.07853429949521751 1:0.546684 2:-0.147912 3:-0.257351 4:0.595674 5:0.832027 6:0.639906 7:-0.267431 8:-1 9:-0.968873 10:-0.968701 11:-0.99531 12:0.961222 13:0.942084 14:-0.969576 
0.04901929757428169 1:0.702111 2:-0.544646 3:-0.0461632 4:0.42134 5:0.946426 6:-0.194486 7:0.950257 8:-0.167362 9:-0.94305 10:-0.976664 11:-0.945999 12:0.929708 13:0.945432 14:-0.982829 
2 1:0.180558 2:-0.330681 3:-0.0158347 4:0.621463 5:0.903016 6:-0.21323 7:-0.267431 8:-1 9:-0.993068 10:-0.998267 11:-0.996541 12:0.981042 13:0.90411 14:-1 
0.749958738016587 1:0.730038 2:-0.21386 3:-0.0914915 4:0.48208 5:0.795712 6:-0.460734 7:-0.10572 8:-1 9:-0.980854 10:-0.995833 11:-0.987051 12:0.963106 13:0.960086 14:-1 
2 1:0.385075 2:-0.552601 3:-0.437449 4:0.698631 5:0.862036 6:-0.471008 7:0.17383 8:-0.455222 9:-0.952304 10:-0.988721 11:-0.962698 12:0.954644 13:0.935046 14:-1 
0.2637459154589006 1:-0.0332873 2:-0.336543 3:-0.239963 4:0.395854 5:0.649295 6:-0.094028 7:-0.0147381 8:-1 9:-0.99214 10:-0.995599 11:-0.995097 12:0.686274 13:0.800796 14:-1 
2 1:0.674194 2:-0.455668 3:-0.162058 4:-0.240783 5:0.495871 6:-0.946154 7:0.873655 8:-0.542662 9:-0.970066 10:-0.998769 11:-0.965947 12:0.978082 13:0.375362 14:-1 
0.822561006631357 1:0.980839 2:0.0214592 3:-0.0717305 4:-0.218306 5:-0.0497057 6:0.998624 7:0.710322 8:-1 9:-0.973753 10:-0.976059 11:-0.999781 12:0.996042 13:1 14:-0.974419 
2 1:0.499492 2:-0.159217 3:-0.250947 4:0.122149 5:0.7511 6:-0.68023 7:0.376778 8:-0.393076 9:-0.97019 10:-0.996164 11:-0.968083 12:0.954378 13:0.903422 14:-1 
2 1:0.625678 2:-0.341777 3:-0.0113947 4:0.189166 5:0.762552 6:-0.651 7:0.507375 8:-0.134486 9:-0.975999 10:-0.995699 11:-0.980215 12:0.977528 13:0.924716 14:-1 
0.04399182806151438 1:0.650492 2:-0.38658 3:-0.130837 4:0.677911 5:0.957559 6:-0.93271 7:0.710322 8:-0.24007 9:-0.973351 10:-0.999013 11:-0.967847 12:0.99262 13:0.961368 14:-1 
2 1:-0.339849 2:-0.183293 3:-0.0979179 4:0.382503 5:0.699883 6:-0.362538 7:0.873655 8:-1 9:-0.995579 10:-0.998845 11:-0.997505 12:0.98697 13:0.908006 14:-1 
0.6557699320970112 1:0.336815 2:-0.178269 3:-0.297236 4:-0.0308429 5:0.0637308 6:0.553266 7:-0.0147381 8:0.276796 9:-0.979948 10:-0.982187 11:-0.995145 12:0.957908 13:0.960718 14:-0.985268 
2 1:0.724915 2:-0.379253 3:-0.130903 4:0.187977 5:0.611051 6:-0.684648 7:0.873655 8:-0.105398 9:-0.960624 10:-0.992118 11:-0.960511 12:0.09589 13:0.434082 14:-1 
0.3437496635923 1:0.573308 2:-0.543808 3:-0.138938 4:0.56486 5:0.877711 6:-0.78412 7:0.17383 8:-0.247464 9:-0.969709 10:-0.996397 11:-0.986546 12:0.942796 13:0.93257 14:-0.989692 
2 1:-0.152337 2:-0.294462 3:-0.0812098 4:0.162437 5:0.455101 6:-0.065604 7:0.507375 8:-1 9:-0.996147 10:-0.999038 11:-0.998733 12:0.97902 13:0.871186 14:-1 
2 1:0.774525 2:-0.323773 3:-0.157869 4:0.572414 5:0.864135 6:-0.819756 7:0.923397 8:-0.48871 9:-0.962745 10:-0.99701 11:-0.957504 12:0.961326 13:0.941558 14:-1 
0.2383410682770045 1:0.256917 2:-0.257406 3:-0.115283 4:0.65094 5:0.941163 6:-0.289184 7:0.17383 8:-1 9:-0.984647 10:-0.996153 11:-0.991852 12:0.952192 13:0.953514 14:-1 
2 1:0.513796 2:-0.362713 3:-0.192783 4:0.650114 5:0.930904 6:-0.766926 7:0.314554 8:-0.388556 9:-0.973272 10:-0.996887 11:-0.96948 12:0.944572 13:0.948396 14:-1 
2 1:0.74761 2:-0.237098 3:-0.182946 4:0.31618 5:0.793099 6:-0.746984 7:0.594104 8:-0.285218 9:-0.964212 10:-0.995496 11:-0.957568 12:0.943412 13:0.939916 14:-1 
2 1:-0.33326 2:-0.17785 3:-0.132383 4:0.234257 5:0.644022 6:-0.317194 7:0.873655 8:-1 9:-0.992953 10:-0.997909 11:-0.994782 12:0.747048 13:0.799476 14:-1 
1.120663484737656 1:0.140824 2:-0.242542 3:-0.0557509 4:-0.173017 5:0.725002 6:0.69981 7:0.873655 8:-1 9:-0.998105 10:-0.999339 11:-0.999804 12:1 13:0.761904 14:-0.999479 
0.05063353324374698 1:0.988492 2:0.107505 3:-0.0822175 4:-0.167691 5:0.946456 6:-0.972127 7:0.710322 8:-0.239202 9:-0.950607 10:-0.999029 11:-0.926714 12:1 13:0.94932 14:-0.999773 
1.201784210998299 1:0.825841 2:-0.136816 3:-0.225961 4:-0.216237 5:-0.164845 6:-0.75333 7:0.507375 8:-0.59142 9:-0.790783 10:-0.982388 11:-0.766392 12:0.854036 13:0.451648 14:-1 
2 1:0.275068 2:-0.186224 3:-0.207241 4:0.585614 5:0.819323 6:-0.163646 7:0.381019 8:-1 9:-0.98198 10:-0.992892 11:-0.98872 12:0.952718 13:0.949646 14:-1 
2 1:0.105705 2:-0.232702 3:-0.179026 4:0.434754 5:0.727721 6:-0.560282 7:0.381019 8:-1 9:-0.9888 10:-0.997755 11:-0.990001 12:0.940664 13:0.934046 14:-1 
2 1:0.471245 2:-0.478907 3:-0.159853 4:-0.000174286 5:0.921065 6:-0.70495 7:0.376778 8:-0.34895 9:-0.973131 10:-0.996951 11:-0.978166 12:0.968086 13:0.944894 14:-1 
0.4585012849715447 1:0.996879 2:0.880875 3:-0.0698351 4:-0.171429 5:0.948787 6:-0.993528 7:1 8:-0.072728 9:-0.952748 10:-0.999804 11:-0.930058 12:1 13:0.950172 14:-0.999935 
0.117543921246908 1:0.982623 2:0.143724 3:-0.0062036 4:0.595669 5:0.90018 6:-0.541692 7:-0.267431 8:-0.023948 9:-0.943822 10:-0.982797 11:-0.935919 12:0.9548 13:0.952176 14:-0.988313 
1.83863780547906 1:0.176747 2:-0.250707 3:-0.126017 4:-0.142114 5:0.353305 6:0.31855 7:0.381019 8:-1 9:-0.988197 10:-0.995695 11:-0.996868 12:0.98731 13:0.956772 14:-0.998311 
2 1:0.384059 2:-0.209463 3:-0.16379 4:0.56988 5:0.788709 6:-0.427932 7:0.873655 8:-1 9:-0.985212 10:-0.996786 11:-0.988992 12:0.952084 13:0.945454 14:-1 
0.6050732248880821 1:0.982145 2:-0.248404 3:-0.0143025 4:0.67902 5:0.947509 6:-0.765996 7:-0.10572 8:-0.013218 9:-0.947519 10:-0.990718 11:-0.936369 12:0.95889 13:0.947944 14:-0.993085 
2 1:0.175826 2:-0.371716 3:-0.148931 4:0.366006 5:0.609988 6:0.196698 7:0.710322 8:-1 9:-0.984816 10:-0.991832 11:-0.994152 12:0.945648 13:0.904616 14:-0.996899 
2 1:-0.0120248 2:-0.211975 3:-0.074041 4:0.181411 5:0.654846 6:-0.047836 7:0.314554 8:-1 9:-0.989594 10:-0.997452 11:-0.996441 12:0.981818 13:0.877708 14:-1 
2 1:0.830386 2:-0.262221 3:-0.124163 4:0.513891 5:0.849588 6:-0.907442 7:0.544362 8:-0.582418 9:-0.957475 10:-0.998149 11:-0.952431 12:0.901768 13:0.930858 14:-1 
0.1859221029909587 1:0.963913 2:-0.0317178 3:-0.121054 4:0.429131 5:0.942754 6:-0.383738 7:0.17383 8:-0.075638 9:-0.945117 10:-0.979835 11:-0.952906 12:0.961232 13:0.94814 14:-0.98285 
0.9207782024993048 1:0.409871 2:-0.502983 3:-0.152692 4:0.31452 5:0.786687 6:-0.717746 7:0.544362 8:-0.231476 9:-0.978666 10:-0.996906 11:-0.980615 12:0.9274 13:0.937182 14:-1 
2 1:0.624966 2:-0.152936 3:-0.15236 4:0.500286 5:0.75877 6:-0.179246 7:-0.267431 8:-1 9:-0.983722 10:-0.99213 11:-0.988157 12:0.94894 13:0.944248 14:-1 
0.04732032868792634 1:0.901614 2:-0.0784047 3:-0.111585 4:0.694386 5:0.960036 6:-0.368596 7:0.786915 8:-0.08996 9:-0.962286 10:-0.984213 11:-0.968995 12:0.962056 13:0.96008 14:-0.990963 
1.863008600862891 1:0.907692 2:-0.0356956 3:-0.0597008 4:0.411143 5:0.828969 6:0.28084 7:0.314554 8:-1 9:-0.981486 10:-0.986407 11:-0.989864 12:0.970306 13:0.913988 14:-0.996317 
1.252586196560207 1:0.737187 2:-0.151052 3:-0.06965 4:0.3479 5:0.793604 6:-0.579354 7:1 8:-0.104864 9:-0.957013 10:-0.989485 11:-0.953909 12:0.954472 13:0.941994 14:-0.993786 
2 1:-0.0275918 2:-0.333612 3:-0.12268 4:-0.171429 5:0.99221 6:0.54906 7:-0.0147381 8:-1 9:-0.999955 10:-0.999984 11:-0.999995 12:1 13:1 14:-0.999987 
2 1:0.571319 2:-0.542971 3:-0.181263 4:0.609774 5:0.744924 6:-0.700736 7:0.873655 8:-0.336046 9:-0.97048 10:-0.996094 11:-0.967395 12:0.923076 13:0.935852 14:-1 
0.3145107355908294 1:-0.577037 2:-0.381974 3:0.0875009 4:-0.167346 5:-1 6:1 7:0.786915 8:-1 9:-0.99963 10:-0.999905 11:-1 12:1 13:-1 14:-0.999902 
0.7064102575802673 1:1 2:1 3:0.243574 4:-1 5:0.951696 6:-1 7:0.873655 8:-1 9:-0.939672 10:-1 11:-0.976038 12:-1 13:0.94847 14:-0.939453 
2 1:0.801704 2:-0.0204124 3:-0.0634024 4:0.336017 5:0.72885 6:-0.01217 7:-0.524091 8:-1 9:-0.996855 10:-0.998883 11:-0.99871 12:0.950704 13:0.938566 14:-1 
0.682429704359596 1:0.666506 2:-0.54318 3:-0.0995714 4:0.662603 5:0.959664 6:-0.704154 7:1 8:-0.633226 9:-0.824392 10:-0.976685 11:-0.778853 12:0.960778 13:0.96389 14:-1 
2 1:0.891712 2:-0.282738 3:-0.0522032 4:-0.175594 5:0.952004 6:-0.981723 7:1 8:-0.186944 9:-0.954521 10:-0.999468 11:-0.955519 12:0.986112 13:0.946936 14:-1 
2 1:0.292614 2:-0.498587 3:-0.290551 4:0.119709 5:0.475896 6:-0.327558 7:-0.0644836 8:-0.168672 9:-0.967737 10:-0.991638 11:-0.982348 12:0.93713 13:0.809414 14:-1 
2 1:0.982314 2:-0.0348582 3:-0.0552926 4:0.5787 5:0.895704 6:-0.979486 7:-0.10572 8:-0.416526 9:-0.955491 10:-0.999162 11:-0.93801 12:0.927272 13:0.938564 14:-0.999414 
1.482479038831535 1:0.96538 2:-0.0405108 3:-0.0863215 4:0.692417 5:0.893596 6:-0.767966 7:0.314554 8:-0.03909 9:-0.954477 10:-0.992558 11:-0.93973 12:0.960194 13:0.946696 14:-0.994653 
0.6904226211523671 1:0.984207 2:0.064587 3:0.14552 4:-0.277031 5:0.945712 6:-0.189692 7:0.873655 8:-0.516736 9:0.339559 10:-0.677823 11:0.439583 12:0.934092 13:0.964844 14:-0.857019 
1.023077879430197 1:0.337505 2:-0.529363 3:-0.199174 4:0.624391 5:0.905815 6:-0.62405 7:0.381019 8:-0.304044 9:-0.977316 10:-0.995386 11:-0.980701 12:0.94425 13:0.956282 14:-1 
0.2700795621073173 1:0.646976 2:-0.723019 3:-0.0998852 4:0.566234 5:0.895877 6:-0.994069 7:-0.524091 8:-0.17647 9:-0.982127 10:-0.999897 11:-0.974994 12:0.818182 13:0.932696 14:-1 
0.3956629747192539 1:0.647444 2:-0.143724 3:-0.0954472 4:0.628083 5:0.894967 6:-0.774062 7:0.376778 8:0.179984 9:-0.973597 10:-0.994859 11:-0.974246 12:0.926622 13:0.941486 14:-0.999496 
0.7260114942518039 1:0.571866 2:-0.488328 3:-0.0674249 4:0.00153429 5:0.1534 6:-0.696676 7:0.594104 8:-0.102752 9:-0.982232 10:-0.997095 11:-0.984858 12:0.924084 13:0.869958 14:-1 
2 1:-0.422195 2:-0.236261 3:-0.13206 4:0.626543 5:0.739681 6:-0.282066 7:0.507375 8:-1 9:-0.994274 10:-0.998368 11:-0.996779 12:0.937916 13:0.926028 14:-1 
2 1:0.923684 2:-0.634042 3:-0.07536 4:0.123809 5:0.92926 6:-1 7:0.950257 8:-0.538462 9:-0.966525 10:-0.999993 11:-0.958624 12:1 13:0.946354 14:-1 
0.3474227427201925 1:0.815188 2:-0.161311 3:-0.0714294 4:-0.351097 5:-0.0387419 6:-0.796044 7:0.873655 8:-0.303782 9:-0.968726 10:-0.995804 11:-0.961904 12:0.870824 13:0.977472 14:-1 
0.02770107191870263 1:0.990923 2:0.170941 3:0.0222496 4:0.525637 5:0.938507 6:-0.924639 7:0.594104 8:0.038006 9:-0.916223 10:-0.996036 11:-0.884831 12:0.964912 13:0.952938 14:-0.997084 
1.165981685823744 1:0.548746 2:-0.173663 3:-0.154976 4:0.743174 5:0.925697 6:-0.350496 7:1 8:-1 9:-0.974069 10:-0.993216 11:-0.982505 12:0.968784 13:0.954134 14:-1 
1.284568180411642 1:0.64609 2:-0.16152 3:-0.125474 4:0.622674 5:0.875318 6:-0.415304 7:0.873655 8:-1 9:-0.98079 10:-0.994502 11:-0.983811 12:0.9375 13:0.926932 14:-1 
2 1:-0.262526 2:-0.299278 3:-0.0803649 4:0.437606 5:0.802044 6:-0.041918 7:0.391157 8:-1 9:-0.997952 10:-0.999673 11:-0.999394 12:0.92647 13:0.969696 14:-1 
2 1:0.00645083 2:-0.155239 3:-0.261075 4:0.57976 5:0.892686 6:-0.21498 7:0.17383 8:-1 9:-0.974924 10:-0.994036 11:-0.986478 12:0.951992 13:0.9603 14:-1 
2 1:-0.288616 2:-0.223071 3:-0.0691236 4:0.376063 5:0.643743 6:-0.585608 7:0.507375 8:-1 9:-0.99866 10:-0.999924 11:-0.999552 12:1 13:0.959596 14:-1 
2 1:0.972035 2:-0.0151785 3:-0.0206264 4:-0.162949 5:0.964409 6:0.107774 7:0.594104 8:-0.107142 9:-0.967951 10:-0.981663 11:-0.976949 12:0.999602 13:0.9601 14:-0.989837 
2 1:0.943419 2:-0.0451167 3:-0.110332 4:-0.174263 5:0.887935 6:-0.69957 7:0.873655 8:-0.274456 9:-0.937643 10:-0.992134 11:-0.920085 12:1 13:0.948216 14:-0.996809 
2 1:0.157299 2:-0.325448 3:-0.105333 4:0.460277 5:0.708925 6:-0.435338 7:0.594104 8:-1 9:-0.992938 10:-0.9989 11:-0.995961 12:0.975062 13:0.944134 14:-1 
1.750605147394874 1:0.971813 2:0.0834293 3:-0.0908699 4:-0.183386 5:-0.0367131 6:-0.739414 7:0.786915 8:-0.080536 9:-0.975482 10:-0.996527 11:-0.969916 12:1 13:0.974126 14:-0.999873 
2 1:0.917798 2:-0.121742 3:-0.0926223 4:0.271194 5:0.921357 6:-0.923323 7:0.381019 8:-0.332624 9:-0.954174 10:-0.998508 11:-0.932745 12:0.869566 13:0.947874 14:-0.999847 
2 1:-0.376831 2:-0.25929 3:-0.120004 4:0.418457 5:0.685008 6:0.166882 7:0.381019 8:-1 9:-0.990877 10:-0.997845 11:-0.997946 12:0.966718 13:0.948718 14:-0.999814 
2 1:0.610168 2:-0.444154 3:-0.22026 4:0.836717 5:0.794663 6:-0.316748 7:0.0147391 8:-0.13315 9:-0.957791 10:-0.982901 11:-0.969646 12:0.966324 13:0.935938 14:-0.994945 
2 1:0.818222 2:-0.12572 3:-0.0707029 4:0.53886 5:0.833856 6:0.966604 7:-0.524091 8:-1 9:-0.985897 10:-0.990331 11:-0.999852 12:0.976246 13:1 14:-0.988859 
0.1294538993597934 1:0.99038 2:-0.0202031 3:-0.0695765 4:0.574109 5:0.900114 6:-0.996082 7:-0.10572 8:0.076924 9:-0.954081 10:-0.999847 11:-0.93279 12:0.8125 13:0.936972 14:-0.999942 
0.2212974588161595 1:0.91798 2:-0.0266932 3:-0.0481484 4:-0.232949 5:-0.0412056 6:-0.230812 7:0.314554 8:-0.12784 9:-0.990765 10:-0.996712 11:-0.991728 12:0.941464 13:0.924134 14:-1 
1.229771690018109 1:0.982588 2:-0.0444886 3:0.0414495 4:-0.0549086 5:0.930834 6:0.537684 7:-0.10572 8:-0.022272 9:-0.960904 10:-0.968839 11:-0.985946 12:0.971932 13:0.932148 14:-0.974494 
1.573893166708863 1:0.64787 2:-0.276039 3:-0.191327 4:0.645631 5:0.907422 6:-0.239318 7:0.314554 8:-0.05644 9:-0.970946 10:-0.985497 11:-0.979994 12:0.95985 13:0.949056 14:-1 
2 1:-0.264137 2:-0.25615 3:-0.0501761 4:-0.173503 5:0.691881 6:0.12395 7:0.873655 8:-1 9:-0.995895 10:-0.99881 11:-0.998795 12:0.985948 13:0.954888 14:-0.99985 
2 1:0.406797 2:-0.212813 3:-0.0558204 4:-0.183271 5:0.941399 6:0.679796 7:-0.10572 8:-1 9:-0.995091 10:-0.998753 11:-0.999711 12:0.982608 13:0.939394 14:-0.999025 
0.07973606290645802 1:0.753232 2:-0.295928 3:-0.251398 4:-0.329751 5:0.889661 6:-0.683282 7:0.17383 8:-0.463352 9:-0.945101 10:-0.988887 11:-0.971659 12:0.947916 13:0.954712 14:-0.976646 
1.802695179449494 1:1 2:1 3:-0.080068 4:-1 5:0.951075 6:-1 7:1 8:-1 9:-0.929563 10:-1 11:-0.92284 12:-1 13:0.958062 14:-0.988349 
0.03089107529337315 1:0.99361 2:0.4519 3:-0.00973855 4:0.638517 5:0.876885 6:-0.967567 7:0.376778 8:-0.124304 9:-0.949114 10:-0.998734 11:-0.935295 12:0.89761 13:0.944856 14:-0.999334 
2 1:0.733328 2:-0.503821 3:-0.165222 4:0.689277 5:0.934377 6:-0.314148 7:0.17383 8:-0.112604 9:-0.963306 10:-0.984402 11:-0.968106 12:0.957732 13:0.953114 14:-0.998076 
0.2724900599315614 1:0.95955 2:-0.0865697 3:0.0761062 4:0.656314 5:0.955683 6:0.112254 7:-0.524091 8:-0.093082 9:-0.953392 10:-0.970444 11:-0.971884 12:0.958112 13:0.96223 14:-0.977503 
0.02256269318941641 1:0.842085 2:-0.369413 3:0.000391683 4:-0.151054 5:0.944016 6:-0.985632 7:-0.267431 8:-0.42297 9:-0.972398 10:-0.999572 11:-0.963093 12:0.885246 13:0.9594 14:-1 
2 1:0.533448 2:-0.362713 3:-0.204626 4:0.567709 5:0.874634 6:-0.752236 7:0.507375 8:-0.360544 9:-0.969067 10:-0.996287 11:-0.96706 12:0.944866 13:0.942516 14:-1 
2 1:0.928546 2:-0.044698 3:-0.0104005 4:0.6763 5:0.925325 6:0.413704 7:0.17383 8:-1 9:-0.97591 10:-0.980674 11:-0.99127 12:0.94534 13:0.92683 14:-0.987748 
2 1:0.911785 2:-0.0461635 3:-0.0755287 4:0.3068 5:0.758305 6:-0.72772 7:0.786915 8:-1 9:-0.9925 10:-0.999174 11:-0.994 12:0.947598 13:0.919642 14:-1 
0.4601423385482034 1:0.653075 2:-0.14854 3:-0.0848685 4:-0.567991 5:-0.350543 6:-0.881837 7:0.786915 8:-0.113268 9:-0.980685 10:-0.997771 11:-0.974649 12:0.991702 13:0.983592 14:-1 
2 1:-0.731613 2:-0.337172 3:-0.0718284 4:0.418946 5:0.795433 6:-0.02974 7:0.314554 8:-1 9:-0.989773 10:-0.998303 11:-0.997707 12:0.948828 13:0.96728 14:-1 
0.8575110046189351 1:0.769763 2:-0.424055 3:-0.0551684 4:0.0912829 5:0.528019 6:-0.992498 7:0.314554 8:-0.895543 9:-0.874757 10:-0.99853 11:-0.940771 12:0.96962 13:0.962848 14:-0.960241 
2 1:0.580262 2:-0.154192 3:-0.161704 4:-0.165886 5:0.688614 6:-0.765398 7:0.507375 8:-1 9:-0.977616 10:-0.998161 11:-0.976367 12:0.944 13:0.932482 14:-1 
2 1:0.02767 2:-0.299696 3:-0.0599091 4:-0.180951 5:0.338812 6:-0.66893 7:0.381019 8:-1 9:-0.999257 10:-0.999912 11:-0.999486 12:0.878788 13:0.964286 14:-1 
2 1:0.937758 2:-0.0562127 3:-0.0812186 4:-0.16724 5:0.711564 6:-0.974334 7:-0.0644836 8:-0.343284 9:-0.96618 10:-0.999358 11:-0.953975 12:0.989528 13:0.905494 14:-1 
0.369206273464915 1:0.977505 2:-0.0400921 3:0.0221226 4:0.609683 5:0.955315 6:-0.365 7:0.17383 8:0.007956 9:-0.955469 10:-0.980379 11:-0.955194 12:0.961632 13:0.953634 14:-0.983932 
0.3481051405691251 1:0.991327 2:0.146656 3:-0.0726323 4:0.678591 5:0.956752 6:-0.214736 7:0.950257 8:-0.019306 9:-0.929445 10:-0.960749 11:-0.943641 12:0.951604 13:0.955208 14:-0.966529 
2 1:-0.626742 2:-0.27227 3:-0.0545854 4:-0.170969 5:0.706906 6:0.75025 7:0.594104 8:-1 9:-0.998214 10:-0.999283 11:-0.99988 12:0.975806 13:0.851852 14:-0.99932 
0.1095940598163539 1:0.978616 2:-0.0457448 3:0.012215 4:0.310769 5:0.949428 6:-0.37824 7:1 8:-0.129324 9:-0.943599 10:-0.97929 11:-0.939701 12:0.940456 13:0.950126 14:-0.983426 
1.75370279948659 1:0.668286 2:-0.203182 3:0.0564537 4:0.673486 5:0.923499 6:-0.411644 7:0.710322 8:-1 9:-0.961769 10:-0.989623 11:-0.975033 12:0.949938 13:0.94395 14:-1 
0.128904911329089 1:0.99443 2:0.0185282 3:0.039794 4:0.676291 5:0.948618 6:0.526872 7:0.873655 8:-0.006722 9:-0.849783 10:-0.850413 11:-0.950865 12:0.963776 13:0.95718 14:-0.857671 
0.9370270397212088 1:0.981876 2:0.0189469 3:-0.0687734 4:-0.100777 5:0.795035 6:-0.904646 7:0.873655 8:-0.192206 9:-0.961316 10:-0.998137 11:-0.945039 12:0.955734 13:0.95742 14:-0.999588 
1.130530208025097 1:0.793387 2:-0.532294 3:-0.425896 4:-0.0188486 5:0.602235 6:-0.472726 7:0.507375 8:-0.354276 9:-0.904411 10:-0.977649 11:-0.88745 12:0.87648 13:0.945972 14:-0.991887 
2 1:-0.11117 2:-0.31812 3:-0.084181 4:0.321823 5:0.709336 6:-0.445232 7:0.544362 8:-1 9:-0.996054 10:-0.999566 11:-0.998179 12:0.97546 13:0.979328 14:-1 
2 1:0.830412 2:-0.269968 3:-0.119662 4:0.6 5:0.93424 6:-0.965011 7:0.314554 8:-0.627342 9:-0.96552 10:-0.999211 11:-0.954339 12:0.896374 13:0.942574 14:-1 
2 1:0.653227 2:-0.334659 3:-0.21761 4:0.586563 5:0.917479 6:-0.816671 7:1 8:-0.556492 9:-0.951405 10:-0.99599 11:-0.942071 12:0.950496 13:0.95114 14:-1 
2 1:-0.372763 2:-0.347639 3:-0.0670707 4:0.432563 5:0.734309 6:-0.219124 7:0.507375 8:-1 9:-0.998006 10:-0.999729 11:-0.999281 12:0.897058 13:0.962264 14:-1 
2 1:-0.196103 2:-0.193552 3:-0.130912 4:0.392031 5:0.643979 6:-0.328734 7:0.873655 8:-1 9:-0.991981 10:-0.997893 11:-0.995255 12:0.960924 13:0.954972 14:-1 
0.07515652550155226 1:0.953564 2:-0.192505 3:-0.0611634 4:0.413463 5:0.923403 6:-0.560932 7:0.594104 8:-0.087956 9:-0.956052 10:-0.986017 11:-0.992543 12:0.545904 13:0.923318 14:-0.959571 
1.01137751545546 1:0.579168 2:-0.211138 3:-0.220783 4:0.0238514 5:0.401716 6:-0.711352 7:0.17383 8:-0.376764 9:-0.962027 10:-0.995872 11:-0.952286 12:0.98074 13:0.945988 14:-1 
0.6821191161636971 1:0.312679 2:-0.162776 3:-0.187532 4:0.400206 5:0.700684 6:-0.24616 7:0.507375 8:-1 9:-0.984838 10:-0.994435 11:-0.988894 12:0.959712 13:0.914274 14:-1 
1.408545883677382 1:0.953268 2:-0.010782 3:-0.0143304 4:0.351791 5:0.860356 6:0.630928 7:-0.10572 8:0.104536 9:-0.963922 10:-0.957011 11:-0.992526 12:0.960648 13:0.917538 14:-0.959783 
2 1:-0.384649 2:-0.250497 3:-0.10926 4:0.462057 5:0.743038 6:-0.331532 7:0.873655 8:-1 9:-0.996641 10:-0.999144 11:-0.998015 12:0.942652 13:0.951542 14:-1 
1.346842812091488 1:-0.676634 2:-0.345546 3:-0.0570502 4:0.714286 5:0.99221 6:-0.701204 7:-0.0147381 8:1 9:-0.999959 10:-0.999995 11:-0.999966 12:1 13:1 14:-0.999998 
0.6118192132226501 1:0.987433 2:0.13556 3:0.626643 4:0.312366 5:0.1297 6:1 7:1 8:-1 9:-0.959612 10:-0.951283 11:-0.999738 12:0.84794 13:0.6 14:-0.946293 
0.5916612346664788 1:0.812444 2:-0.51387 3:-0.0337988 4:-0.536694 5:0.295113 6:-0.948207 7:1 8:-0.1582 9:-0.957217 10:-0.997888 11:-0.941336 12:0.923388 13:0.920886 14:-1 
0.5745125306979812 1:0.963869 2:0.0379985 3:-0.0714448 4:-0.174886 5:0.210082 6:0.98213 7:0.381019 8:-1 9:-0.992159 10:-0.995831 11:-0.999938 12:0.96828 13:-0.333334 14:-0.995994 
0.1974108517985176 1:0.99443 2:0.858055 3:-0.0482207 4:0.658314 5:0.941632 6:-0.948361 7:0.391157 8:-0.087248 9:-0.958805 10:-0.998537 11:-0.939 12:0.949526 13:0.942998 14:-0.999201 
0.3463726514205661 1:0.80486 2:-0.133885 3:0.0340971 4:-0.287814 5:-0.156379 6:-0.223124 7:0.873655 8:-0.205226 9:-0.973852 10:-0.98665 11:-0.973814 12:0.960668 13:0.967316 14:-0.995632 
1.990814210549944 1:0.989829 2:-0.0451167 3:-0.0786538 4:0.605114 5:0.738622 6:-0.689494 7:0.507375 8:-0.025554 9:-0.947373 10:-0.987921 11:-0.933712 12:0.939272 13:0.946136 14:-0.991553 
2 1:-0.219246 2:-0.311211 3:-0.0645518 4:0.04898 5:0.825296 6:0.173242 7:0.17383 8:-1 9:-0.999183 10:-0.999804 11:-0.999845 12:0.714286 13:1 14:-0.99997 
2 1:0.370818 2:-0.194808 3:-0.108694 4:0.442674 5:0.764909 6:-0.551872 7:0.873655 8:-1 9:-0.995202 10:-0.999168 11:-0.996755 12:0.982978 13:0.905278 14:-1 
0.2323052638327022 1:0.988952 2:-0.0112007 3:-0.0479205 4:0.428666 5:1 6:-0.12538 7:1 8:0.01205 9:-0.935966 10:-0.95838 11:-0.947853 12:0.45675 13:0.952732 14:-0.965401 
0.3145862755992088 1:0.997595 2:0.270805 3:-0.0727247 4:0.697423 5:0.954843 6:-0.994206 7:-0.0644836 8:-0.086614 9:-0.940722 10:-0.999731 11:-0.912373 12:0.934426 13:0.95547 14:-0.999858 
0.4888618003282597 1:0.977261 2:-0.0386266 3:0.00360236 4:-0.285309 5:0.248937 6:-0.028518 7:-0.10572 8:-0.063914 9:-0.941554 10:-0.959104 11:-0.954378 12:0.995212 13:0.952886 14:-0.976792 
1.680693446138183 1:0.908338 2:-0.640113 3:0.0849664 4:0.266169 5:0.784496 6:-0.891352 7:0.873655 8:-0.29847 9:-0.949759 10:-0.996651 11:-0.933301 12:0.9602 13:0.949516 14:-1 
1.864571292823763 1:0.845215 2:-0.767822 3:-0.0399557 4:0.76716 5:0.938437 6:-0.83427 7:0.0147391 8:-0.168658 9:-0.966101 10:-0.996759 11:-0.95776 12:0.973494 13:0.94916 14:-1 
0.03102170487631335 1:0.991596 2:0.435989 3:-0.0204965 4:0.290389 5:0.937192 6:0.479896 7:0.594104 8:-0.030252 9:-0.937092 10:-0.941621 11:-0.974526 12:0.95457 13:0.945 14:-0.941419 
0.1443886807754543 1:0.976697 2:-0.462787 3:0.00788434 4:0.665014 5:0.955023 6:0.08201 7:1 8:-0.086892 9:-0.947988 10:-0.965795 11:-0.967117 12:0.95404 13:0.952566 14:-0.974025 
0.2956329330217418 1:0.985974 2:0.265362 3:-0.0631272 4:-0.0853829 5:0.735517 6:-0.679306 7:-0.0147381 8:-0.069832 9:-0.961427 10:-0.993731 11:-0.950933 12:0.808052 13:0.928662 14:-0.996907 
0.2469816996711321 1:0.7623 2:-0.197111 3:-0.0834897 4:0.478306 5:0.745359 6:-0.391682 7:0.74731 8:-1 9:-0.987323 10:-0.997075 11:-0.992018 12:0.935816 13:0.93393 14:-1 
0.1521772528512111 1:0.992915 2:0.0832199 3:-0.0380625 4:-0.13784 5:0.942674 6:-0.892751 7:-0.0644836 8:-0.03355 9:-0.944263 10:-0.996137 11:-0.922286 12:0.974304 13:0.952154 14:-0.998147 
0.1109462131081847 1:0.962341 2:-0.0591437 3:-0.011478 4:0.184297 5:0.507579 6:-0.972387 7:0.873655 8:-0.11157 9:-0.947794 10:-0.998924 11:-0.953883 12:0.908396 13:0.935988 14:-0.983676 
0.6885162465585012 1:0.890188 2:-0.0474197 3:-0.106642 4:0.652754 5:0.953475 6:-0.933622 7:0.314554 8:-0.338984 9:-0.962359 10:-0.998417 11:-0.947639 12:0.927084 13:0.946448 14:-1 
0.4412463383180756 1:0.961417 2:0.0652151 3:-0.0270547 4:0.640209 5:0.920637 6:-0.953438 7:0.17383 8:-0.059702 9:-0.953383 10:-0.998234 11:-0.952748 12:0.921672 13:0.950034 14:-0.999055 
2 1:0.893783 2:-0.258453 3:-0.107213 4:0.329026 5:0.840122 6:-0.787554 7:-0.10572 8:-0.233528 9:-0.960244 10:-0.995338 11:-0.9596 12:0.953728 13:0.944318 14:-1 
1.59996470100445 1:0.805629 2:-0.140375 3:-0.0654328 4:-0.0524229 5:0.550318 6:0.67024 7:0.507375 8:-1 9:-0.996494 10:-0.998598 11:-0.999641 12:0.969958 13:0.901234 14:-0.998848 
2 1:0.401814 2:-0.418193 3:-0.604038 4:0.299889 5:0.718793 6:-0.232276 7:0.376778 8:-0.225726 9:-0.962684 10:-0.988865 11:-0.966904 12:0.90197 13:0.933388 14:-1 
2 1:0.616592 2:-0.348058 3:-0.230399 4:0.661057 5:0.927225 6:-0.255498 7:0.314554 8:-0.152188 9:-0.97383 10:-0.988817 11:-0.979597 12:0.957558 13:0.945352 14:-1 
1.171478804317411 1:0.538154 2:-0.131791 3:0.10763 4:-0.172349 5:0.938115 6:-0.379712 7:0.391157 8:-1 9:-0.96967 10:-0.997389 11:-0.979543 12:1 13:0.953326 14:-1 
2 1:0.951636 2:-0.16487 3:-0.0639636 4:0.27514 5:0.930801 6:-0.744682 7:0.391157 8:-0.110116 9:-0.953217 10:-0.993916 11:-0.945701 12:0.959584 13:0.939972 14:-0.998598 
1.120870655970215 1:0.897021 2:-0.230399 3:-0.0247718 4:0.721737 5:0.946758 6:-0.019474 7:-0.267431 8:0.126092 9:-0.962439 10:-0.972794 11:-0.978711 12:0.947898 13:0.960988 14:-0.986066 
1.22101278389692 1:0.928776 2:-0.0465822 3:-0.0887194 4:0.471663 5:0.865479 6:-0.510368 7:0.507375 8:-0.099324 9:-0.940285 10:-0.981468 11:-0.937266 12:0.971264 13:0.949256 14:-0.984042 
1.71157266454877 1:0.411807 2:-0.210091 3:-0.0615802 4:-0.161106 5:0.48263 6:-0.439692 7:0.507375 8:-1 9:-0.992287 10:-0.99901 11:-0.996275 12:0.993548 13:0.898104 14:-1 
2 1:-0.333216 2:-0.315398 3:-0.135958 4:0.347391 5:0.583857 6:-0.181832 7:0.873655 8:-1 9:-0.994542 10:-0.998426 11:-0.997681 12:0.973544 13:0.91791 14:-1 
2 1:-0.122388 2:-0.188108 3:-0.11273 4:0.6202 5:0.913286 6:-0.385042 7:1 8:-1 9:-0.97695 10:-0.995458 11:-0.986667 12:0.948248 13:0.94226 14:-1 
2 1:0.892689 2:-0.254684 3:-0.105696 4:0.592903 5:0.0794958 6:0.914724 7:0.381019 8:-1 9:-0.971941 10:-0.968441 11:-0.998852 12:0.983596 13:0.659016 14:-0.966757 
2 1:0.471245 2:-0.478907 3:-0.159853 4:-0.000174286 5:0.921065 6:-0.70495 7:0.376778 8:-0.34895 9:-0.973131 10:-0.996951 11:-0.978166 12:0.968086 13:0.944894 14:-1 
2 1:0.2655 2:-0.341777 3:-0.10956 4:0.617826 5:0.793285 6:-0.174042 7:0.507375 8:-1 9:-0.992922 10:-0.997695 11:-0.996465 12:0.94941 13:0.944162 14:-1 
2 1:0.887727 2:-0.139747 3:-0.0693122 4:0.544663 5:0.843153 6:-0.090176 7:0.873655 8:-1 9:-0.977884 10:-0.990095 11:-0.987628 12:0.9504 13:0.941976 14:-1 
2 1:0.466105 2:-0.258872 3:-0.114717 4:0.386206 5:0.581623 6:-0.75257 7:-0.10572 8:-1 9:-0.977974 10:-0.99779 11:-0.977634 12:0.920146 13:0.849756 14:-1 
0.006784858394855619 1:0.462628 2:-0.316864 3:-0.648017 4:0.132034 5:0.559018 6:-0.188496 7:-0.267431 8:-0.18996 9:-0.957124 10:-0.986402 11:-0.963532 12:0.973162 13:0.932834 14:-1 
1.054436791522017 1:0.941296 2:-0.116927 3:-0.043268 4:-0.19702 5:0.589366 6:-0.959711 7:0.507375 8:-0.6194 9:-0.951418 10:-0.997999 11:-0.947994 12:0.895692 13:0.423846 14:-0.991797 
0.6221250632949187 1:0.960075 2:-0.108552 3:-0.035045 4:-0.149326 5:0.950145 6:-0.907664 7:0.594104 8:-0.113846 9:-0.961542 10:-0.997996 11:-0.946828 12:0.946524 13:0.944196 14:-1 
2 1:-0.676634 2:-0.345546 3:-0.0570502 4:0.714286 5:0.99221 6:-0.701204 7:-0.0147381 8:1 9:-0.999959 10:-0.999995 11:-0.999966 12:1 13:1 14:-0.999998 
1.543563181903086 1:0.997165 2:0.674657 3:-0.0784499 4:-0.02896 5:0.937992 6:-0.985441 7:0.391157 8:0.068182 9:-0.946776 10:-0.999414 11:-0.921217 12:0.97279 13:0.940682 14:-0.999725 
2 1:0.351809 2:-0.458599 3:-0.129391 4:0.494349 5:0.778685 6:-0.798056 7:0.873655 8:-0.220472 9:-0.989365 10:-0.998736 11:-0.988316 12:0.943926 13:0.875242 14:-1 
0.6989258916074627 1:0.968319 2:0.0312991 3:-0.0274091 4:-0.293717 5:-0.289133 6:-0.257686 7:0.381019 8:-1 9:-0.985135 10:-0.9932 11:-0.987971 12:0.983376 13:0.932886 14:-1 
0.8332197436519175 1:0.406736 2:-0.156914 3:-0.210929 4:0.596983 5:0.874554 6:-0.188934 7:-0.10572 8:-1 9:-0.97858 10:-0.991401 11:-0.985187 12:0.934348 13:0.938894 14:-1 
2 1:0.788047 2:-0.180781 3:-0.0225996 4:-0.171397 5:0.750841 6:-0.254626 7:0.0147391 8:-1 9:-0.986385 10:-0.997103 11:-0.993959 12:0.963344 13:0.929176 14:-1 
2 1:-0.0503738 2:-0.257406 3:-0.142359 4:0.440249 5:0.69131 6:-0.265404 7:0.74731 8:-1 9:-0.992025 10:-0.997392 11:-0.994872 12:0.950724 13:0.953886 14:-1 
1.058660994556186 1:0.654125 2:-0.525594 3:-0.463263 4:-0.203271 5:0.514395 6:-0.437094 7:1 8:-0.359956 9:-0.946747 10:-0.982567 11:-0.941683 12:0.854098 13:0.45945 14:-0.998803 
2 1:0.629976 2:-0.403329 3:-0.17243 4:0.531434 5:0.834832 6:-0.798904 7:-0.10572 8:-0.491556 9:-0.959128 10:-0.996139 11:-0.957294 12:0.948612 13:0.952956 14:-1 
2 1:0.0548017 2:-0.358945 3:-0.0882742 4:0.280263 5:0.513798 6:-0.10704 7:0.376778 8:-1 9:-0.997046 10:-0.999261 11:-0.998587 12:0.922262 13:0.941176 14:-1 
2 1:0.975421 2:-0.0174814 3:-0.0766327 4:-0.0502686 5:0.496824 6:-0.990266 7:0.923397 8:-0.69014 9:-0.898931 10:-0.999197 11:-0.850105 12:0.828878 13:0.942294 14:-1 
0.6595669822402066 1:0.926419 2:-0.0721239 3:-0.0828717 4:0.670234 5:0.956241 6:-0.761076 7:1 8:-0.112596 9:-0.954068 10:-0.993074 11:-0.941736 12:0.957894 13:0.955778 14:-0.999706 
2 1:-0.748882 2:-0.327332 3:-0.0714472 4:0.0938086 5:0.649109 6:0.895676 7:0.17383 8:-1 9:-0.999183 10:-0.999894 11:-0.999987 12:0.933334 13:1 14:-0.999921 
2 1:-0.333216 2:-0.315398 3:-0.135958 4:0.347391 5:0.583857 6:-0.181832 7:0.873655 8:-1 9:-0.994542 10:-0.998426 11:-0.997681 12:0.973544 13:0.91791 14:-1 
2 1:0.878324 2:-0.22998 3:-0.444795 4:0.712666 5:0.961769 6:-0.133748 7:0.314554 8:-0.21091 9:-0.672883 10:-0.829623 11:-0.763153 12:0.95992 13:0.961094 14:-0.868969 
0.6978521274196285 1:0.476971 2:-0.155867 3:-0.435578 4:-0.09648 5:-0.0321178 6:0.260138 7:1 8:0.197418 9:-0.947028 10:-0.96547 11:-0.973558 12:0.890488 13:0.949016 14:-0.972432 
2 1:0.323648 2:-0.664189 3:-0.13722 4:-0.175126 5:0.518147 6:-0.862212 7:-0.267431 8:-0.384502 9:-0.969945 10:-0.998372 11:-0.964115 12:1 13:0.945184 14:-1 
2 1:0.745878 2:-0.249241 3:-0.176945 4:0.560349 5:0.946845 6:-0.96249 7:0.381019 8:-0.585144 9:-0.96716 10:-0.999037 11:-0.966042 12:0.961978 13:0.947476 14:-1 
0.4560562458691116 1:0.543089 2:-0.145818 3:-0.31138 4:0.622543 5:0.923848 6:-0.471262 7:0.0147391 8:-1 9:-0.96953 10:-0.992365 11:-0.969777 12:0.956498 13:0.941898 14:-1 
1.860284904617237 1:-0.328958 2:-0.189574 3:-0.245347 4:0.633026 5:0.886577 6:-0.204896 7:0.594104 8:-1 9:-0.984337 10:-0.994571 11:-0.990294 12:0.96972 13:0.953118 14:-1 
0.2304547179841571 1:0.995911 2:-0.0310897 3:-0.0623972 4:0.702134 5:0.94448 6:-0.990781 7:0.507375 8:0.04698 9:-0.952812 10:-0.999641 11:-0.999851 12:0.977012 13:0.875 14:-0.927843 
2 1:0.710225 2:-0.441641 3:-0.16273 4:0.612697 5:0.926604 6:-0.925927 7:0.314554 8:-0.588308 9:-0.960282 10:-0.998439 11:-0.949543 12:0.92248 13:0.943964 14:-1 
0.2034689750383343 1:0.995464 2:0.288391 3:-0.0741966 4:0.251551 5:0.955962 6:-0.994682 7:0.381019 9:-0.944192 10:-0.999825 11:-0.918641 12:0.913044 13:0.94756 14:-0.99994 
1.59166690986813 1:0.973133 2:-0.00889773 3:-0.0212822 4:-0.131803 5:0.87293 6:0.020622 7:0.710322 8:-0.1008 9:-0.95285 10:-0.976302 11:-0.964633 12:0.910828 13:0.93657 14:-0.980472 
2 1:0.372355 2:-0.470742 3:-0.307025 4:0.399426 5:0.747703 6:-0.573174 7:-0.524091 8:-0.376726 9:-0.968193 10:-0.994816 11:-0.969745 12:0.907418 13:0.92781 14:-1 
2 1:0.981572 2:0.00868837 3:-0.0787925 4:0.694614 5:0.952575 6:-0.985856 7:0.710322 8:-0.412766 9:-0.94254 10:-0.999198 11:-0.917738 12:0.956284 13:0.952532 14:-0.999862 
1.816073183515106 1:0.425091 2:-0.282948 3:-0.553311 4:-0.0989143 5:0.581217 6:-0.286922 7:-0.267431 8:-0.238698 9:-0.96071 10:-0.989765 11:-0.965274 12:0.976654 13:0.887672 14:-1 
0.05390970366663429 1:0.929653 2:-0.121114 3:-0.270215 4:0.658026 5:0.886202 6:-0.363502 7:-0.267431 8:-0.023458 9:-0.942033 10:-0.972599 11:-0.999497 12:0.934684 13:0.944954 14:-0.91545 
1.953981050311167 1:0.10999 2:-0.189783 3:-0.155421 4:0.330757 5:0.552875 6:-0.342654 7:0.0147391 8:-1 9:-0.988972 10:-0.997363 11:-0.991827 12:0.968036 13:0.811016 14:-1 
2 1:0.704456 2:-0.437245 3:-0.174363 4:0.606557 5:0.898364 6:-0.791016 7:0.17383 8:-0.457674 9:-0.963606 10:-0.996211 11:-0.956056 12:0.95847 13:0.939294 14:-1 
2 1:-0.125396 2:-0.235214 3:-0.060497 4:-0.43954 5:-0.553114 6:-0.039678 7:0.381019 8:-1 9:-0.998689 10:-0.999647 11:-0.999216 12:0.017858 13:0.90164 14:-1 
1.153716365445873 1:0.513809 2:-0.5302 3:-0.177726 4:-0.252134 5:-0.224476 6:-0.620722 7:0.507375 8:-0.359112 9:-0.978892 10:-0.996316 11:-0.97522 12:0.510474 13:0.987774 14:-1 
1.790952832312152 1:0.801895 2:-0.384487 3:-0.117533 4:0.743514 5:0.951533 6:-0.39334 7:0.923397 8:-0.059508 9:-0.970847 10:-0.989138 11:-0.971656 12:0.966284 13:0.95308 14:-0.99645 
0.2577644685564328 1:0.915089 2:-0.312886 3:-0.0301362 4:0.674294 5:0.952439 6:-0.525866 7:0.873655 8:-0.137838 9:-0.970748 10:-0.993327 11:-0.973694 12:0.960084 13:0.954302 14:-0.99939 
2 1:-0.580058 2:-0.27248 3:-0.0600906 4:0.467169 5:0.843804 6:0.379148 7:0.873655 8:-1 9:-0.996188 10:-0.999004 11:-0.999491 12:0.964912 13:0.930434 14:-0.999447 
0.8282261072182981 1:0.959797 2:0.033602 3:-0.0243798 4:0.4025 5:0.643736 6:0.229076 7:-0.10572 8:-1 9:-0.977007 10:-0.983011 11:-0.988154 12:0.816676 13:0.870292 14:-0.994002 
0.2981394414779359 1:1 2:1 3:-0.0324648 4:-1 5:0.752056 6:-1 7:0.786915 8:-1 9:-0.946141 10:-1 11:-0.94269 12:-1 13:0.92817 14:-0.992388 
2 1:0.648478 2:-0.391605 3:-0.126537 4:0.830457 5:0.849794 6:-0.731986 7:0.923397 8:-0.333052 9:-0.960703 10:-0.993505 11:-0.967475 12:0.957628 13:0.943318 14:-1 
1.400510238688494 1:0.332409 2:-0.176175 3:-0.10604 4:-0.162103 5:0.753979 6:-0.818795 7:-0.10572 8:-0.414226 9:-0.98673 10:-0.999081 11:-0.981026 12:0.941422 13:0.870736 14:-1 
2 1:0.171885 2:-0.610803 3:-0.264202 4:0.589169 5:0.827332 6:-0.797948 7:0.507375 8:-0.43917 9:-0.973434 10:-0.997214 11:-0.974292 12:0.94911 13:0.944464 14:-1 
2 1:-0.366052 2:-0.679891 3:-0.143082 4:0.35238 5:0.230622 6:-0.28451 7:-0.10572 8:-0.050778 9:-0.985846 10:-0.99378 11:-0.990841 12:0.978246 13:0.960538 14:-1 
2 1:0.986004 2:0.139747 3:-0.0619435 4:-0.192209 5:0.953283 6:-0.995364 7:0.0147391 8:-0.472392 9:-0.940167 10:-0.999842 11:-0.911578 12:0.90909 13:0.956086 14:-1 
2 1:0.770805 2:-0.453156 3:-0.0366096 4:-0.175811 5:0.823706 6:-0.861475 7:0.544362 8:-0.433114 9:-0.955874 10:-0.997378 11:-0.946399 12:1 13:0.932122 14:-1 
2 1:-0.196103 2:-0.193552 3:-0.130912 4:0.392031 5:0.643979 6:-0.328734 7:0.873655 8:-1 9:-0.991981 10:-0.997893 11:-0.995255 12:0.960924 13:0.954972 14:-1 
2 1:0.943375 2:-0.0438606 3:-0.117392 4:0.624383 5:0.939341 6:-0.915347 7:0.391157 8:-0.45992 9:-0.944668 10:-0.997338 11:-0.924032 12:0.90432 13:0.94536 14:-0.999602 
0.3403555904708748 1:0.917476 2:-0.0463729 3:-0.101305 4:0.671063 5:0.904822 6:0.92897 7:0.950257 8:-1 9:-0.976493 10:-0.969181 11:-0.99916 12:0.947102 13:0.901098 14:-0.966273 
2 1:0.709049 2:-0.598032 3:-0.178031 4:0.391211 5:0.847241 6:-0.834335 7:0.381019 8:-0.555762 9:-0.947478 10:-0.995323 11:-0.936613 12:0.906854 13:0.944072 14:-1 
0.7543103581436618 1:-0.0289983 2:-0.28546 3:-0.087187 4:0.595909 5:0.887543 6:0.218954 7:0.873655 8:-1 9:-0.995773 10:-0.998197 11:-0.998872 12:0.946602 13:0.945312 14:-0.999271 
0.6818284232687055 1:0.994717 2:0.156495 3:-0.0759426 4:0.390477 5:0.930757 6:-0.985247 7:-0.0147381 8:-0.00433 9:-0.941918 10:-0.999491 11:-0.913091 12:0.936508 13:0.952772 14:-0.999764 
2 1:-0.520138 2:-0.220559 3:-0.144141 4:0.494854 5:0.852829 6:-0.27402 7:0.873655 8:-1 9:-0.991515 10:-0.997917 11:-0.995175 12:0.948126 13:0.961182 14:-1 
0.3915996049112093 1:0.998172 2:0.115042 3:-0.015701 4:0.3474 5:0.950308 6:-0.989469 7:0.314554 8:0.018248 9:-0.819125 10:-0.998902 11:-0.76737 12:0.978798 13:0.964368 14:-0.999236 
1.496681798754051 1:0.826153 2:-0.237936 3:-0.58556 4:0.4597 5:0.632228 6:-0.433642 7:0.786915 8:-0.489864 9:-0.811906 10:-0.943865 11:-0.83018 12:0.964856 13:0.972766 14:-0.978776 
1.394909739241753 1:0.864276 2:-0.105621 3:-0.0418796 4:-0.0678514 5:0.178638 6:-0.400952 7:0.381019 8:-1 9:-0.990236 10:-0.997273 11:-0.990181 12:0.991316 13:0.93741 14:-1 
2 1:0.883468 2:-0.221187 3:-0.0697182 4:0.4674 5:0.910942 6:-0.98383 7:0.594104 8:-0.474226 9:-0.964968 10:-0.999505 11:-0.952016 12:0.948718 13:0.94586 14:-1 
2 1:0.619961 2:-0.350361 3:-0.106574 4:0.578954 5:0.906449 6:0.08495 7:0.873655 8:-0.059256 9:-0.973064 10:-0.980907 11:-0.985297 12:0.934902 13:0.93449 14:-0.995001 
0.610797625113026 1:0.977648 2:0.0637496 3:-0.0191467 4:0.496249 5:0.775086 6:-0.74469 7:0.873655 8:-0.058878 9:-0.962391 10:-0.993852 11:-0.957637 12:0.907162 13:0.934168 14:-0.996928 
2 1:0.698439 2:-0.441432 3:-0.188761 4:0.666469 5:0.908833 6:-0.79567 7:0.507375 8:-0.346698 9:-0.961061 10:-0.995787 11:-0.949067 12:0.964836 13:0.950974 14:-1 
0.2702075174801641 1:0.799473 2:-0.262221 3:-0.146852 4:-0.178563 5:0.774266 6:-0.869905 7:-0.524091 8:-0.543562 9:-0.948748 10:-0.997054 11:-0.931001 12:1 13:0.935886 14:-1 
2 1:0.872156 2:-0.283157 3:-0.133102 4:0.650254 5:0.94547 6:-0.94953 7:0.74731 8:-0.58959 9:-0.94906 10:-0.998127 11:-0.966458 12:0.9375 13:0.948956 14:-0.972416 
1.440618381790025 1:0.544574 2:-0.559719 3:-0.258738 4:0.635077 5:0.9293 6:-0.850579 7:1 8:-0.460192 9:-0.959596 10:-0.996885 11:-0.957572 12:0.940594 13:0.94711 14:-1 
2 1:0.911499 2:-0.0139223 3:-0.0672093 4:-0.19016 5:0.840736 6:-0.629874 7:0.0147391 8:-1 9:-0.981782 10:-0.997813 11:-0.985547 12:0.971056 13:0.955142 14:-1 
2 1:0.18631 2:-0.16466 3:-0.191865 4:0.513969 5:0.805935 6:-0.009278 7:-0.10572 8:-1 9:-0.987435 10:-0.994899 11:-0.993674 12:0.965206 13:0.95512 14:-1 
2 1:-0.00423254 2:-0.330263 3:-0.126637 4:0.537766 5:0.745933 6:-0.069918 7:0.391157 8:-1 9:-0.990638 10:-0.997131 11:-0.995868 12:0.96092 13:0.916142 14:-1 
2 1:0.495789 2:-0.363969 3:-0.232314 4:0.584289 5:0.849356 6:-0.592934 7:0.314554 8:-0.289928 9:-0.971941 10:-0.993574 11:-0.971469 12:0.935612 13:0.93831 14:-1 
0.1733669227751556 1:0.985709 2:0.0354862 3:-0.0216634 4:-0.245057 5:0.313717 6:0.711144 7:0.314554 8:-0.035436 9:-0.944138 10:-0.949184 11:-0.987213 12:0.999864 13:0.952614 14:-0.950277 
2 1:-0.192518 2:-0.205485 3:-0.173224 4:0.273023 5:0.71529 6:-0.196094 7:0.710322 8:-1 9:-0.985786 10:-0.996468 11:-0.993047 12:0.975214 13:0.964404 14:-1 
0.7943507177195872 1:0.990532 2:0.0924317 3:-0.0687473 4:-0.353334 5:-0.121621 6:-0.982889 7:0.17383 8:-0.245762 9:-0.956777 10:-0.99967 11:-0.937046 12:-0.033334 13:0.950254 14:-1 
2 1:0.17142 2:-0.156077 3:-0.267018 4:0.543991 5:0.808389 6:-0.379586 7:0.873655 8:-1 9:-0.984309 10:-0.995391 11:-0.987318 12:0.956822 13:0.952464 14:-1 
0.2169627932377372 1:0.972226 2:-0.0354862 3:-0.0391571 4:0.0118286 5:0.883416 6:-0.666496 7:0.786915 8:-0.122684 9:-0.959954 10:-0.991559 11:-0.967302 12:0.956592 13:0.934656 14:-1 
2 1:0.598729 2:-0.166335 3:-0.164899 4:0.0960114 5:0.697702 6:-0.815752 7:0.381019 8:-0.506024 9:-0.966812 10:-0.99719 11:-0.95396 12:0.974358 13:0.957322 14:-1 
1.880277479141331 1:-0.505092 2:-0.245263 3:-0.0908986 4:0.175646 5:0.329123 6:0.022246 7:0.507375 8:-1 9:-0.996698 10:-0.9992 11:-0.998826 12:0.96988 13:0.666666 14:-1 
2 1:0.251443 2:-0.322516 3:-0.0210105 4:-0.165431 5:0.578179 6:0.20216 7:0.507375 8:-1 9:-0.995926 10:-0.998693 11:-0.999022 12:0.981942 13:0.962442 14:-0.999433 
1.20750048322657 1:0.461942 2:-0.256569 3:-0.0797749 4:0.467629 5:0.676541 6:-0.552884 7:0.17383 8:-1 9:-0.99362 10:-0.999165 11:-0.996711 12:0.972478 13:0.949008 14:-1 
2 1:0.194606 2:-0.286297 3:-0.0537382 4:-0.158774 5:0.386549 6:0.132666 7:0.507375 8:-1 9:-0.995926 10:-0.999215 11:-0.998997 12:0.994566 13:0.963636 14:-1 
1.593792010405592 1:0.70864 2:-0.523919 3:-0.0938898 4:0.487323 5:0.819429 6:-0.369514 7:-0.267431 8:-0.099696 9:-0.953638 10:-0.978591 11:-0.972118 12:0.976812 13:0.931716 14:-0.98544 
1.695720464549404 1:0.232573 2:-0.24296 3:-0.021403 4:-0.180897 5:0.931156 6:-0.320848 7:0.17383 8:-1 9:-0.987607 10:-0.997473 11:-0.993065 12:0.958944 13:0.929412 14:-1 
2 1:-0.541791 2:-0.274783 3:-0.070173 4:0.314971 5:0.674981 6:-0.403214 7:0.873655 8:-1 9:-0.996896 10:-0.999625 11:-0.998963 12:0.968 13:0.91342 14:-1 
2 1:0.272011 2:-0.258662 3:-0.12168 4:0.625571 5:0.873315 6:-0.703018 7:0.873655 8:-1 9:-0.98992 10:-0.998573 11:-0.989351 12:0.95704 13:0.929992 14:-1 
2 1:0.963079 2:0.0080603 3:0.0082758 4:0.617909 5:0.95409 6:0.535774 7:-0.10572 8:-1 9:-0.982628 10:-0.989608 11:-0.996357 12:0.9374 13:0.948052 14:-0.992296 
2 1:0.440614 2:-0.698105 3:-0.207602 4:0.642797 5:0.911416 6:-0.86757 7:0.786915 8:-0.32036 9:-0.962761 10:-0.996844 11:-0.960752 12:0.942386 13:0.950786 14:-1 
2 1:0.801301 2:-0.229352 3:-0.118874 4:0.455823 5:0.890485 6:-0.618512 7:0.507375 8:-0.151352 9:-0.950792 10:-0.989819 11:-0.949531 12:0.946616 13:0.953824 14:-1 
2 1:-0.385517 2:-0.223699 3:0.203615 4:-0.171429 5:-1 6:1 7:-0.267431 8:-1 9:-0.999997 10:-0.999997 11:-1 12:1 13:-1 14:-0.999998 
2 1:0.913231 2:-0.0467916 3:0.0808987 4:-0.239466 5:0.708496 6:0.045452 7:1 8:-0.29844 9:-0.970573 10:-0.98804 11:-0.975073 12:0.85649 13:0.915416 14:-0.995197 
0.1457929165218981 1:0.743143 2:-0.332147 3:-0.158757 4:0.69562 5:0.955746 6:-0.408178 7:0.873655 8:-0.161346 9:-0.968024 10:-0.988132 11:-0.97173 12:0.957028 13:0.958008 14:-1 
0.3654504076833244 1:0.956733 2:-0.225584 3:0.0302917 4:0.704251 5:0.94794 6:-0.447324 7:0.391157 8:-0.041832 9:-0.944291 10:-0.978087 11:-0.946585 12:0.947052 13:0.948922 14:-0.982959 
2 1:0.540897 2:-0.267665 3:-0.196776 4:0.580597 5:0.879259 6:-0.722272 7:0.507375 8:-0.43445 9:-0.972356 10:-0.996535 11:-0.967904 12:0.946866 13:0.949424 14:-1 
2 1:-0.239384 2:-0.245682 3:-0.094491 4:0.385226 5:0.803087 6:-0.249322 7:0.17383 8:-1 9:-0.995352 10:-0.999314 11:-0.997917 12:0.965714 13:0.961456 14:-1 
2 1:0.497044 2:-0.590286 3:-0.149124 4:0.65422 5:0.958429 6:-0.906648 7:0.381019 8:-0.264336 9:-0.974666 10:-0.99864 11:-0.973013 12:0.9375 13:0.955802 14:-1 
1.449858514935229 1:0.929514 2:-0.0480477 3:-0.0681401 4:0.494591 5:0.781953 6:-0.708208 7:0.17383 8:-1 9:-0.993821 10:-0.999444 11:-0.995172 12:0.990292 13:0.97271 14:-1 
1.869738308582125 1:0.897021 2:-0.230399 3:-0.0247718 4:0.699803 5:0.946758 6:-0.908449 7:-0.267431 8:-0.446114 9:-0.962439 10:-0.99808 11:-0.978711 12:0.952476 13:0.960988 14:-0.986066 
2 1:0.987893 2:0.0442793 3:-0.018465 4:0.681929 5:0.955039 6:0.17715 7:0.786915 8:-0.018274 9:-0.939634 10:-0.947524 11:-0.972813 12:0.954988 13:0.949188 14:-0.944597 
1.953415014516511 1:0.846474 2:-0.200461 3:-0.0108155 4:-0.319589 5:0.888018 6:-0.988385 7:0.594104 8:-0.246636 9:-0.956987 10:-0.999714 11:-0.949693 12:0.979382 13:0.938174 14:-1 
2 1:-0.177654 2:-0.346802 3:-0.0666308 4:-0.153131 5:0.880149 6:0.52494 7:0.507375 8:-1 9:-0.998941 10:-0.99961 11:-0.999866 12:0.982456 13:0.9375 14:-0.999726 
1.831502428163056 1:0.981503 2:-0.0235528 3:-0.0253798 4:0.689949 5:0.959834 6:-0.951668 7:0.314554 8:-0.067648 9:-0.955571 10:-0.99836 11:-0.93594 12:0.962264 13:0.952536 14:-0.998883 
2 1:0.467551 2:-0.561813 3:-0.192133 4:0.637794 5:0.918472 6:-0.816869 7:0.544362 8:-0.475974 9:-0.973367 10:-0.997703 11:-0.970544 12:0.929824 13:0.952066 14:-1 
2 1:0.531412 2:-0.531456 3:-0.25849 4:0.5502 5:0.822992 6:-0.758878 7:0.314554 8:-0.635632 9:-0.926992 10:-0.990938 11:-0.928197 12:0.937766 13:0.92502 14:-1 
2 1:0.100982 2:-0.174919 3:-0.203308 4:0.621129 5:0.883927 6:-0.33641 7:0.314554 8:-1 9:-0.987964 10:-0.99607 11:-0.990082 12:0.962782 13:0.944418 14:-1 
0.07133415838144026 1:-0.632238 2:-0.302418 3:0.240501 4:-0.27912 5:-1 6:1 7:0.507375 8:-1 9:-0.999936 10:-0.999969 11:-1 12:1 13:-1 14:-0.999974 
1.258980840760206 1:0.964577 2:0.240657 3:-0.0714438 4:-0.0197886 5:0.649109 6:0.983604 7:-1 8:-1 9:-0.996871 10:-0.998511 11:-0.999974 12:0.965458 13:1 14:-0.998422 
0.02059834296510461 1:0.986556 2:0.0109913 3:0.0363336 4:0.400311 5:0.896674 6:0.749846 7:-0.267431 8:-0.070592 9:-0.95463 10:-0.946329 11:-0.991059 12:0.9345 13:0.927402 14:-0.946409 
1.966561088242116 1:0.563197 2:-0.702921 3:-0.0446312 4:0.210169 5:0.946798 6:-0.751984 7:-0.0147381 8:-0.359096 9:-0.96144 10:-0.996491 11:-0.950745 12:0.943632 13:0.938548 14:-1 
2 1:0.523368 2:-0.692453 3:-0.154152 4:0.26368 5:0.551514 6:-0.700696 7:0.381019 8:-0.360222 9:-0.95849 10:-0.994143 11:-0.960276 12:0.959476 13:0.900066 14:-1 
1.77391699297572 1:0.21039 2:-0.759029 3:-0.152883 4:0.365497 5:0.861604 6:-0.811639 7:0.710322 8:-0.217834 9:-0.982825 10:-0.998233 11:-0.984951 12:0.961864 13:0.942528 14:-1 
1.102827903851677 1:0.849022 2:-0.0459542 3:-0.0931386 4:0.67362 5:0.940274 6:0.100442 7:-0.267431 8:-1 9:-0.993186 10:-0.99626 11:-0.996771 12:0.963004 13:0.955308 14:-0.999347 
2 1:0.69583 2:-0.308071 3:-0.161515 4:0.621886 5:0.901535 6:-0.82273 7:-0.10572 8:-0.501228 9:-0.964193 10:-0.997025 11:-0.956084 12:0.924792 13:0.938926 14:-1 
0.1886830118031805 1:0.932275 2:-0.189155 3:-0.0158382 4:0.686891 5:0.95643 6:-0.972872 7:0.786915 8:-0.035714 9:-0.956901 10:-0.999237 11:-0.967177 12:0.97647 13:0.95102 14:-0.9831 
0.01266995691983161 1:0.853962 2:-0.411703 3:-0.209955 4:0.612311 5:0.784586 6:0.267482 7:0.594104 8:0.047354 9:-0.940971 10:-0.945606 11:-0.992498 12:0.937686 13:0.84597 14:-0.938957 
0.4882255790433443 1:0.840908 2:-0.268293 3:-0.0803153 4:0.0201057 5:0.643059 6:-0.941649 7:0.507375 8:-0.178182 9:-0.984781 10:-0.999394 11:-0.979383 12:0.962962 13:0.945356 14:-1 
0.7188719112562496 1:0.745071 2:-0.210091 3:-0.75601 4:0.388851 5:0.915696 6:0.06288 7:-0.524091 8:0.051826 9:-0.946342 10:-0.958764 11:-0.99783 12:0.959166 13:0.953488 14:-0.941236 
0.5737102799465474 1:0.702685 2:-0.140375 3:-0.080691 4:0.474574 5:0.791266 6:-0.490196 7:0.594104 8:-1 9:-0.982924 10:-0.997503 11:-0.989617 12:0.955308 13:0.949806 14:-1 
2 1:0.196872 2:-0.623783 3:-0.377912 4:0.654534 5:0.858593 6:-0.353192 7:0.391157 8:-0.294536 9:-0.976784 10:-0.99316 11:-0.982191 12:0.919954 13:0.90406 14:-1 
2 1:-0.156925 2:-0.270386 3:-0.0704942 4:0.332343 5:0.455094 6:-0.03234 7:0.594104 8:-1 9:-0.998424 10:-0.999752 11:-0.999539 12:1 13:0.960784 14:-1 
1.924674233474025 1:0.796313 2:-0.508008 3:-0.223432 4:0.495311 5:0.864068 6:-0.832856 7:0.873655 8:-0.678842 9:-0.823355 10:-0.986469 11:-0.790872 12:0.97386 13:0.965428 14:-1 
2 1:0.351279 2:-0.594682 3:-0.129669 4:0.355863 5:0.827667 6:-0.70758 7:0.544362 8:-0.309454 9:-0.980487 10:-0.996665 11:-0.977039 12:0.950344 13:0.936226 14:-1 
2 1:-0.526485 2:-0.325029 3:-0.186912 4:-0.272449 5:0.459437 6:-0.379976 7:0.17383 8:-1 9:-0.996437 10:-0.999081 11:-0.996722 12:1 13:0.858408 14:-1 
2 1:0.309809 2:-0.168847 3:-0.152948 4:0.534397 5:0.739874 6:-0.580864 7:0.594104 8:-1 9:-0.984031 10:-0.997237 11:-0.986605 12:0.95422 13:0.949884 14:-1 
0.1467408718480239 1:0.67623 2:-0.374019 3:-0.258443 4:0.675234 5:0.948956 6:-0.45489 7:0.594104 8:-0.189976 9:-0.964369 10:-0.98887 11:-0.965087 12:0.95953 13:0.95534 14:-0.999575 
2 1:0.153166 2:-0.196692 3:-0.415573 4:-0.190171 5:-1 6:-0.187634 7:0.873655 8:-0.25 9:-0.975441 10:-0.989358 11:-1 12:0.99198 13:-1 14:-0.974286 
2 1:0.225679 2:-0.317073 3:-0.0809606 4:0.184854 5:0.174783 6:-0.462236 7:0.0147391 8:-1 9:-0.98859 10:-0.998498 11:-0.995259 12:0.951808 13:0.92233 14:-1 
2 1:0.118754 2:-0.18099 3:-0.194697 4:0.488783 5:0.736138 6:-0.531804 7:0.507375 8:-1 9:-0.987014 10:-0.997416 11:-0.989922 12:0.943128 13:0.936132 14:-1 
0.4288449231765836 1:-0.396904 2:-0.549252 3:-0.130072 4:0.674071 5:0.898616 6:-0.686628 7:-0.0644836 8:-0.147132 9:-0.9925 10:-0.998995 11:-0.993476 12:0.957846 13:0.914626 14:-1 
2 1:0.990037 2:-0.0235528 3:0.0512581 4:0.513094 5:0.923542 6:-0.998802 7:0.74731 8:-0.66 9:-0.926504 10:-0.999935 11:-0.927225 12:1 13:0.945892 14:-0.972077 
0.9997063920249027 1:0.954814 2:0.0269025 3:0.0111458 4:-0.17414 5:0.680439 6:-0.667422 7:0.873655 8:-1 9:-0.997222 10:-0.99958 11:-0.998218 12:0.912408 13:0.941176 14:-1 
1.409426157420614 1:0.524744 2:-0.663771 3:-0.516719 4:0.156571 5:0.877286 6:-0.913171 7:-0.267431 8:-0.659354 9:-0.952212 10:-0.996679 11:-0.971706 12:0.928058 13:0.941442 14:-0.999376 
2 1:0.957227 2:-0.094944 3:-0.137765 4:0.145274 5:0.918356 6:-0.844339 7:1 8:-0.275158 9:-0.924526 10:-0.993274 11:-0.902016 12:0.971178 13:0.952384 14:-0.996534 
2 1:0.445628 2:-0.175128 3:-0.152634 4:0.478711 5:0.695142 6:0.425202 7:-0.0644836 8:-1 9:-0.990137 10:-0.9953 11:-0.997277 12:0.96355 13:0.89718 14:-0.997573 
2 1:-0.0562646 2:-0.194389 3:-0.0625446 4:0.609851 5:0.714546 6:-0.539352 7:-0.10572 8:-1 9:-0.993304 10:-0.999124 11:-0.996852 12:0.91133 13:0.946874 14:-1 
1.351280624548716 1:0.991005 2:0.0480477 3:-0.0128923 4:0.673829 5:0.94875 6:0.277606 7:0.594104 8:-0.038982 9:-0.934798 10:-0.937657 11:-0.966877 12:0.9544 13:0.94971 14:-0.940922 
1.101499524995803 1:0.741155 2:-0.290275 3:-0.165854 4:0.267923 5:0.194091 6:-0.804963 7:0.314554 8:-0.495152 9:-0.955207 10:-0.996211 11:-0.947535 12:0.91055 13:0.831012 14:-1 
2 1:0.775484 2:-0.094944 3:-0.11252 4:0.60362 5:0.887497 6:-0.912056 7:0.507375 8:-0.401032 9:-0.980809 10:-0.999092 11:-0.974911 12:0.918552 13:0.909388 14:-1 
2 1:0.318352 2:-0.221396 3:-0.105924 4:0.158449 5:0.526083 6:-0.551938 7:0.786915 8:-1 9:-0.993665 10:-0.999179 11:-0.995551 12:0.98387 13:0.906788 14:-1 
2 1:0.941122 2:-0.25301 3:-0.06559 4:0.554286 5:0.946493 6:-0.99636 7:0.507375 8:-0.516778 9:-0.954279 10:-0.999853 11:-0.971612 12:0.85 13:0.945714 14:-0.984381 
1.198441311155394 1:0.114691 2:-0.263059 3:-0.0626651 4:0.114857 5:0.598556 6:0.330504 7:-0.524091 8:-1 9:-0.997703 10:-0.999231 11:-0.999528 12:0.99 13:0.942308 14:-0.999687 
2 1:-0.577037 2:-0.381974 3:0.0875009 4:-0.167346 5:-1 6:1 7:0.786915 8:-1 9:-0.99963 10:-0.999905 11:-1 12:1 13:-1 14:-0.999902 
2 1:0.535041 2:-0.641579 3:-0.18737 4:0.6448 5:0.937936 6:-0.646718 7:0.507375 8:-0.418038 9:-0.964675 10:-0.993017 11:-0.97842 12:0.945846 13:0.95 14:-1 
2 1:0.94018 2:-0.0390453 3:-0.00836535 4:0.591077 5:0.928251 6:0.022286 7:0.594104 8:-0.1278 9:-0.949596 10:-0.968408 11:-0.965361 12:0.95759 13:0.938426 14:-1 
2 1:0.828198 2:-0.195855 3:-0.0906849 4:0.297849 5:0.681827 6:-0.981405 7:0.17383 8:-0.4218 9:-0.978701 10:-0.999741 11:-0.973784 12:0.863014 13:0.848978 14:-1 
1.13448708044244 1:0.52721 2:-0.241495 3:-0.0880821 4:0.311451 5:0.834889 6:-0.36842 7:0.786915 8:-1 9:-0.990315 10:-0.998348 11:-0.993944 12:0.96391 13:0.948072 14:-1 
0.2094091634823641 1:0.425351 2:-0.741442 3:-0.404427 4:0.773197 5:0.940194 6:-0.088238 7:0.0147391 8:-0.172826 9:-0.918915 10:-0.966837 11:-0.959005 12:0.976816 13:0.967838 14:-0.99774 
2 1:-0.649207 2:-0.268711 3:-0.0633003 4:-0.145354 5:0.56176 6:0.373026 7:0.507375 8:-1 9:-0.997962 10:-0.999151 11:-0.99951 12:0.97902 13:0.963964 14:-0.999569 
2 1:0.369594 2:-0.245682 3:-0.145763 4:-0.0838714 5:0.94363 6:-0.70499 7:-0.10572 8:-1 9:-0.988516 10:-0.998788 11:-0.989239 12:0.982796 13:0.95467 14:-1 
1.903741197622813 1:0.776148 2:-0.303674 3:-0.316968 4:0.450991 5:0.556262 6:-0.498794 7:0.0147391 8:-0.241648 9:-0.95232 10:-0.988555 11:-0.950695 12:0.962288 13:0.943156 14:-0.997846 
0.5859646715369652 1:0.10646 2:-0.186643 3:0.0153556 4:-0.170109 5:0.834022 6:0.159916 7:0.950257 8:-1 9:-0.968637 10:-0.989918 11:-0.987722 12:0.99933 13:0.968562 14:-1 
0.3220458169563991 1:0.620191 2:-0.177641 3:-0.0386175 4:0.472626 5:0.923214 6:0.831622 7:0.391157 8:-1 9:-0.969849 10:-0.978383 11:-0.99843 12:0.960626 13:0.959538 14:-0.977284 
0.6081903439073865 1:0.996614 2:0.873548 3:-0.0664959 4:0.506371 5:0.952111 6:-0.969825 7:0.314554 8:0.130978 9:-0.949047 10:-0.998825 11:-0.925366 12:0.928058 13:0.950658 14:-0.999238 
2 1:0.828489 2:-0.346593 3:0.0495916 4:0.532729 5:0.799909 6:-0.105266 7:0.594104 8:-0.083532 9:-0.959182 10:-0.976852 11:-0.969387 12:0.937214 13:0.928012 14:-0.98006 
2 1:0.19692 2:-0.541296 3:-0.442945 4:-0.0473743 5:-0.0357668 6:-0.28818 7:-0.0644836 8:-0.280634 9:-0.962554 10:-0.983607 11:-0.983944 12:0.984982 13:0.91874 14:-0.993927 
0.5132905603656791 1:0.91182 2:-0.597404 3:0.0374521 4:0.488589 5:0.94892 6:-0.100956 7:-0.10572 8:0.04574 9:-0.968123 10:-0.983371 11:-0.979394 12:0.974512 13:0.954434 14:-0.996221 
2 1:0.332409 2:-0.737046 3:0.0364173 4:0.221577 5:0.951051 6:-0.72896 7:0.594104 8:-0.407408 9:-0.961667 10:-0.995451 11:-0.951479 12:0.93933 13:0.949636 14:-1 
0.01656628155994129 1:0.660945 2:-0.548623 3:-0.78686 4:0.0138914 5:0.596664 6:-0.156024 7:-0.267431 8:-0.271884 9:-0.948157 10:-0.982075 11:-0.954021 12:0.980816 13:0.931674 14:-1 
2 1:-0.495212 2:-0.349942 3:-0.0670463 4:-0.0918371 5:0.427402 6:-0.278642 7:0.873655 8:-1 9:-0.999346 10:-0.999808 11:-0.99958 12:0.964286 13:0.978948 14:-1 
0.8034595057010612 1:0.221677 2:-0.478698 3:-0.182396 4:0.625451 5:0.848672 6:-0.556364 7:-1 8:-0.115996 9:-0.983183 10:-0.996166 11:-0.982858 12:0.962092 13:0.89899 14:-1 
2 1:0.77772 2:-0.10939 3:-0.0689457 4:0.538646 5:0.955577 6:-0.768118 7:0.17383 8:-0.56199 9:-0.948129 10:-0.995003 11:-0.984356 12:0.96919 13:0.962328 14:-1 
0.2120768926978867 1:0.627931 2:-0.652675 3:-0.0279699 4:0.204031 5:0.942389 6:-0.814869 7:0.507375 8:-0.426382 9:-0.957411 10:-0.996675 11:-0.946403 12:0.987938 13:0.947414 14:-1 
1.775883960823018 1:0.857313 2:-0.387208 3:-0.100275 4:0.0656 5:0.853968 6:-0.950337 7:0.710322 8:-0.523524 9:-0.965134 10:-0.998906 11:-0.956544 12:0.973334 13:0.947878 14:-1 
2 1:-0.772706 2:-0.283995 3:-0.146488 4:0.21306 5:0.397987 6:-0.067226 7:0.710322 8:-1 9:-0.994191 10:-0.998032 11:-0.996922 12:0.9844 13:0.948948 14:-1 
2 1:0.57454 2:-0.366063 3:-0.208975 4:0.654263 5:0.933796 6:-0.761174 7:0.381019 8:-0.43542 9:-0.967954 10:-0.996092 11:-0.963915 12:0.936864 13:0.951884 14:-1 
2 1:-0.264137 2:-0.25615 3:-0.0501761 4:-0.173503 5:0.691881 6:0.12395 7:0.873655 8:-1 9:-0.995895 10:-0.99881 11:-0.998795 12:0.985948 13:0.954888 14:-0.99985 
0.4401522804830557 1:0.991518 2:-0.0296242 3:0.0189332 4:0.683174 5:0.960106 6:-0.537692 7:1 8:0.01258 9:-0.364517 10:-0.787612 11:-0.371192 12:0.958126 13:0.958052 14:-0.815491 
0.5494722300602095 1:0.656656 2:-0.153146 3:-0.0366553 4:-0.16636 5:0.674313 6:0.027942 7:0.873655 8:-1 9:-0.989764 10:-0.996804 11:-0.996802 12:0.967742 13:0.941176 14:-0.999981 
0.06977066692030723 1:0.984954 2:0.127813 3:0.00502877 4:0.541017 5:0.951141 6:-0.939334 7:0.376778 8:-0.032368 9:-0.938961 10:-0.997348 11:-0.951382 12:0.967794 13:0.95582 14:-0.971082 
0.4541647292648707 1:0.997934 2:0.61834 3:-0.0714473 4:0.503897 5:0.947087 6:-0.99951 7:0.314554 8:0.5 9:-0.940706 10:-0.99996 11:-0.91184 12:0.818182 13:0.951342 14:-0.99999 
2 1:0.948094 2:-0.0396734 3:-0.0692102 4:-0.176026 5:0.381897 6:0.955698 7:0.507375 8:-1 9:-0.995308 10:-0.996327 11:-0.999905 12:0.982698 13:1 14:-0.996042 
1.18327711368654 1:0.505218 2:-0.464671 3:-0.337737 4:0.331723 5:0.719261 6:-0.509946 7:-0.0644836 8:-0.330844 9:-0.961979 10:-0.992155 11:-0.966582 12:0.95752 13:0.917088 14:-1 
0.673685940738241 1:-0.528061 2:-0.237517 3:0.0147781 4:-0.117143 5:0.00129162 6:-0.141918 7:-0.0147381 9:-0.999592 10:-0.999822 11:-0.999698 12:0.96 13:0.75 14:-0.999991 
1.614479347176778 1:0.987081 2:0.185177 3:-0.0155367 4:-0.173414 5:0.961132 6:-0.64974 7:1 8:-0.050172 9:-0.961201 10:-0.992283 11:-0.952298 12:0.961128 13:0.958902 14:-0.995671 
1.036904209889968 1:0.470364 2:-0.299278 3:-0.0623711 4:0.663446 5:0.919681 6:0.451656 7:-0.524091 8:-1 9:-0.959022 10:-0.97065 11:-0.989579 12:0.952702 13:0.952464 14:-0.979404 
1.643319969946706 1:0.603691 2:-0.478279 3:0.000495662 4:0.302857 5:0.888669 6:-0.999275 7:0.786915 8:-0.576924 9:-0.955903 10:-0.999945 11:-0.959289 12:0.733334 13:0.92648 14:-0.992902 
2 1:0.316677 2:-0.175338 3:-0.158111 4:0.498129 5:0.814741 6:-0.522538 7:0.376778 8:-1 9:-0.9868 10:-0.997571 11:-0.988809 12:0.953308 13:0.940154 14:-1 
0.7806545605829069 1:0.995238 2:-0.0354862 3:-0.0698701 4:-0.366577 5:0.598228 6:-0.984129 7:0.376778 8:-0.126506 9:-0.941727 10:-0.999552 11:-0.913671 12:1 13:0.950026 14:-0.999956 
1.052107875351947 1:0.294489 2:-0.175756 3:-0.0746433 4:-0.02398 5:0.848781 6:0.768996 7:-1 8:-1 9:-0.987732 10:-0.990973 11:-0.998653 12:0.975542 13:0.965986 14:-0.991076 
0.8174885369460883 1:0.583188 2:-0.175756 3:0.0821775 4:-0.08518 5:0.890409 6:0.088536 7:0.314554 8:-1 9:-0.961877 10:-0.98668 11:-0.983463 12:0.97324 13:0.96643 14:-1 
2 1:0.648074 2:-0.357898 3:-0.194929 4:0.68898 5:0.907973 6:-0.47979 7:0.873655 8:-0.24114 9:-0.966729 10:-0.989927 11:-0.966441 12:0.943686 13:0.93882 14:-0.999333 
2 1:0.280359 2:-0.626505 3:-0.241208 4:0.587086 5:0.885816 6:-0.649152 7:0.544362 8:-0.389786 9:-0.968433 10:-0.994628 11:-0.971429 12:0.945348 13:0.943864 14:-1 
2 1:0.923753 2:-0.041767 3:-0.0835682 4:-0.181189 5:0.38021 6:0.856272 7:0.873655 8:-1 9:-0.997748 10:-0.997816 11:-0.999798 12:0.960396 13:0.863636 14:-0.998638 
1.9779832757557 1:-0.253979 2:-0.174081 3:-0.150242 4:0.505546 5:0.846474 6:0.357418 7:-0.267431 8:-1 9:-0.986162 10:-0.99458 11:-0.997047 12:0.955526 13:0.95077 14:-0.997168 
0.05057555335248598 1:0.994643 2:0.00659479 3:0.231441 4:0.677926 5:0.952021 6:-0.1873 7:0.923397 8:-0.015624 9:-0.827403 10:-0.900618 11:-0.853327 12:0.969268 13:0.969398 14:-0.914272 
2 1:0.698248 2:-0.337381 3:-0.159193 4:0.667629 5:0.932763 6:-0.745056 7:0.594104 8:-0.288344 9:-0.973249 10:-0.996176 11:-0.97032 12:0.946352 13:0.9433 14:-1 
2 1:0.352208 2:-0.476185 3:-0.249006 4:0.398823 5:0.776829 6:-0.758708 7:0.17383 8:-0.504938 9:-0.969415 10:-0.996286 11:-0.966572 12:0.973244 13:0.948154 14:-1 
2 1:-0.310868 2:-0.27562 3:-0.119417 4:0.295437 5:0.478277 6:-0.318274 7:0.594104 8:-1 9:-0.993891 10:-0.998828 11:-0.996978 12:0.968586 13:0.895652 14:-1 
0.4665249363276181 1:0.704799 2:-0.475976 3:-0.0945305 4:0.639071 5:0.924837 6:-0.842898 7:-0.524091 8:-0.304942 9:-0.972777 10:-0.99767 11:-0.966543 12:0.96113 13:0.949638 14:-1 
0.7298288307367374 1:0.980248 2:0.0853135 3:-0.071537 4:-0.203571 5:0.956613 6:-0.999501 7:0.710322 8:0.333334 9:-0.964847 10:-0.999974 11:-0.947282 12:0.75 13:0.953888 14:-1 
0.7042454460671301 1:0.993241 2:0.035905 3:-0.037615 4:0.536663 5:0.956792 6:-0.866225 7:0.873655 8:-0.040882 9:-0.940514 10:-0.994726 11:-0.915782 12:0.960132 13:0.95155 14:-0.9963 
0.1274324559097179 1:0.182012 2:-0.159217 3:-0.184395 4:0.12544 5:0.802678 6:-0.446256 7:0.507375 8:-1 9:-0.981058 10:-0.99622 11:-0.985105 12:0.96251 13:0.95201 14:-1 
2 1:0.278697 2:-0.174291 3:-0.20039 4:0.707697 5:0.91143 6:-0.255796 7:-0.0147381 8:-1 9:-0.984092 10:-0.994684 11:-0.988798 12:0.957476 13:0.956192 14:-1 
0.6807279007630556 1:0.942611 2:-0.0555846 3:-0.00374523 4:0.521734 5:0.957094 6:-0.846108 7:0.314554 8:0.08922 9:-0.980318 10:-0.997581 11:-0.973141 12:0.96109 13:0.949486 14:-0.999595 
2 1:0.872199 2:-0.108762 3:-0.0367904 4:0.530869 5:0.918535 6:0.858262 7:-0.0644836 8:-1 9:-0.983058 10:-0.987968 11:-0.999135 12:0.955002 13:0.9602 14:-0.986799 
1.452496600883015 1:-0.837544 2:-0.336543 3:-0.0707083 4:0.603571 5:0.953472 6:-0.433222 7:0.786915 8:-1 9:-0.999898 10:-0.999983 11:-0.999916 12:1 13:1 14:-1 
2 1:0.474362 2:-0.150005 3:-0.286907 4:0.683474 5:0.64207 6:-0.520442 7:0.74731 8:-1 9:-0.970193 10:-0.99426 11:-0.976629 12:0.97781 13:0.891248 14:-1 
1.850667506800956 1:0.768526 2:-0.184759 3:-0.0819703 4:0.00676 5:0.741139 6:-0.825731 7:-0.0147381 8:-0.294832 9:-0.99111 10:-0.999203 11:-0.988073 12:0.883928 13:0.93065 14:-1 
2 1:0.00826974 2:-0.233749 3:-0.091196 4:0.514343 5:0.842649 6:-0.315904 7:0.507375 8:-1 9:-0.983776 10:-0.997077 11:-0.991631 12:0.963414 13:0.96239 14:-1 
1.913724096770611 1:0.15686 2:-0.266408 3:-0.130783 4:0.440623 5:0.654076 6:-0.370238 7:0.873655 8:-1 9:-0.993419 10:-0.998201 11:-0.995706 12:0.98287 13:0.917256 14:-1 
2 1:0.153626 2:-0.177641 3:-0.152947 4:0.361974 5:0.797694 6:-0.50969 7:0.873655 8:-1 9:-0.981642 10:-0.996982 11:-0.987281 12:0.947956 13:0.93661 14:-1 
2 1:0.758624 2:-0.39328 3:-0.151673 4:0.686834 5:0.961544 6:-0.972378 7:0.17383 8:-0.578626 9:-0.970257 10:-0.999387 11:-0.977736 12:0.986928 13:0.962546 14:-0.996312 
2 1:0.981155 2:0.0549566 3:-0.0480948 4:-0.222031 5:0.173445 6:-0.890155 7:0.786915 8:-0.286396 9:-0.941184 10:-0.997273 11:-0.920167 12:0.95908 13:0.88554 14:-0.999651 
1.342365341759417 1:1 2:1 3:-0.064878 4:-1 5:0.90021 6:-1 7:0.786915 8:-1 9:-0.947003 10:-1 11:-0.929387 12:-1 13:0.895136 14:-0.997406 
2 1:0.651621 2:-0.313933 3:-0.206017 4:0.69062 5:0.957519 6:-0.725108 7:0.17383 8:-0.482106 9:-0.959392 10:-0.994749 11:-0.952634 12:0.974804 13:0.962548 14:-1 
0.5903689457959354 1:0.69445 2:-0.0989218 3:-0.0734678 4:0.691597 5:0.911237 6:0.665358 7:-0.524091 8:-1 9:-0.988593 10:-0.991156 11:-0.998339 12:0.956862 13:0.912806 14:-0.991848 
2 1:0.636596 2:-0.19083 3:-0.0559392 4:-0.252311 5:0.861276 6:-0.912689 7:0.873655 8:-0.410628 9:-0.962582 10:-0.998722 11:-0.954612 12:0.942694 13:0.931276 14:-1 
1.794423567668772 1:0.992095 2:-0.0126662 3:-0.042104 4:-0.173443 5:0.954176 6:-0.768762 7:0.873655 8:-0.085354 9:-0.944253 10:-0.99362 11:-0.927443 12:0.971366 13:0.954266 14:-0.996416 
2 1:0.954896 2:-0.0279493 3:-0.0788982 4:0.64098 5:0.954365 6:-0.9868 7:0.923397 8:-0.688074 9:-0.947516 10:-0.999187 11:-0.924605 12:0.919192 13:0.949748 14:-1 
2 1:0.963283 2:0.0585156 3:-0.0679967 4:-0.02618 5:0.880713 6:0.962036 7:0.873655 8:-1 9:-0.984369 10:-0.982813 11:-0.999614 12:0.98921 13:0.925926 14:-0.981601 
2 1:0.947334 2:-0.0457448 3:-0.0935202 4:0.206323 5:0.828099 6:-0.941099 7:-0.524091 8:-0.432836 9:-0.939143 10:-0.99767 11:-0.920695 12:0.841134 13:0.932162 14:-1 
0.5590584632203854 1:0.999931 2:0.983879 3:0.0674685 4:0.54432 5:0.970625 6:-0.742582 7:-0.10572 8:0.028068 9:-0.643814 10:-0.947491 11:-0.548349 12:0.970068 13:0.968758 14:-0.95718 
1.326217436706651 1:0.77647 2:-0.182665 3:-0.0519644 4:0.215123 5:0.861223 6:-0.149384 7:0.594104 8:-0.185194 9:-0.947223 10:-0.974947 11:-0.955723 12:0.972548 13:0.968628 14:-0.982118 
0.4196578116225964 1:0.961108 2:-0.0342301 3:-0.0767457 4:0.714286 5:0.960033 6:-0.999546 7:0.507375 8:-0.333334 9:-0.96567 10:-0.999985 11:-0.950952 12:1 13:0.960038 14:-1 
0.9903293058338768 1:0.375316 2:-0.517429 3:-0.116632 4:0.137529 5:0.808778 6:-0.399934 7:0.0147391 8:-0.165262 9:-0.990019 10:-0.996617 11:-0.990664 12:0.980998 13:0.94745 14:-0.999675 
0.7079842117143023 1:0.999058 2:0.607872 3:0.0876276 4:0.686866 5:0.968682 6:0.09509 7:0.786915 8:-0.040932 9:0.627995 10:0.254482 11:0.0674289 12:0.962258 13:0.963702 14:0.049 
0.9637031566281011 1:0.991947 2:0.110227 3:-0.0738525 4:-0.173729 5:0.961248 6:-0.98621 7:0.923397 8:-0.19553 9:-0.910631 10:-0.999366 11:-0.870292 12:1 13:0.9566 14:-0.999809 
2 1:0.287461 2:-0.620852 3:-0.366376 4:0.49574 5:0.884492 6:-0.485566 7:0.376778 8:-0.394564 9:-0.964589 10:-0.994095 11:-0.96524 12:0.94413 13:0.95002 14:-1 
0.01534673848262053 1:0.949379 2:0.013713 3:-0.0668099 4:-0.315269 5:-0.0605831 6:-0.373112 7:0.314554 8:-0.041046 9:-0.966184 10:-0.985178 11:-0.971063 12:0.95132 13:0.914104 14:-0.996063 
2 1:0.397412 2:-0.457134 3:-0.237245 4:0.572891 5:0.767718 6:-0.637028 7:0.594104 8:-0.395536 9:-0.976165 10:-0.996085 11:-0.972977 12:0.969262 13:0.912298 14:-1 
2 1:0.876848 2:-0.08971 3:-0.0614889 4:0.665163 5:0.936482 6:-0.390056 7:0.507375 8:-0.146918 9:-0.95619 10:-0.983188 11:-0.956227 12:0.944272 13:0.947072 14:-0.990909 
1.222324800855175 1:0.499492 2:-0.159217 3:-0.250947 4:0.122149 5:0.7511 6:-0.68023 7:0.376778 8:-0.393076 9:-0.97019 10:-0.996164 11:-0.968083 12:0.954378 13:0.903422 14:-1 
0.1607935914785413 1:0.978599 2:0.0149691 3:-0.0542908 4:0.607937 5:0.910802 6:-0.745696 7:1 8:-0.050156 9:-0.960362 10:-0.992701 11:-0.950478 12:0.921896 13:0.937716 14:-0.996133 
2 1:0.500998 2:-0.185387 3:0.106813 4:-0.171123 5:0.917526 6:-0.10311 7:-0.10572 8:-1 9:-0.970056 10:-0.991876 11:-0.982731 12:1 13:0.95377 14:-1 
0.291040966913344 1:0.638072 2:-0.167382 3:-0.0164341 4:-0.171403 5:0.771952 6:0.754154 7:0.507375 8:-1 9:-0.969492 10:-0.980792 11:-0.99704 12:0.976236 13:0.915094 14:-0.985263 
1.1225383524648 1:0.670986 2:-0.268921 3:-0.0524963 4:0.435374 5:0.819947 6:0.288602 7:0.507375 8:-1 9:-0.992507 10:-0.996589 11:-0.997441 12:0.94709 13:0.920434 14:-0.99879 
2 1:0.518641 2:-0.413797 3:-0.137136 4:0.0177714 5:0.773861 6:-0.759134 7:-0.0644836 8:-0.259654 9:-0.985001 10:-0.998398 11:-0.986547 12:0.970218 13:0.89631 14:-1 
2 1:0.0118902 2:-0.338637 3:-0.0745753 4:0.396754 5:0.589684 6:-0.578772 7:0.873655 8:-1 9:-0.998268 10:-0.999652 11:-0.998649 12:1 13:0.817034 14:-1 
2 1:0.870454 2:-0.351408 3:-0.161018 4:0.594651 5:0.915783 6:-0.933647 7:0.391157 8:-0.505106 9:-0.966831 10:-0.998583 11:-0.973523 12:0.944134 13:0.937102 14:-0.990438 
2 1:0.962137 2:0.153983 3:-0.070055 4:0.38954 5:-0.0238169 6:0.97469 7:-1 8:-1 9:-0.998226 10:-0.998883 11:-0.999978 12:0.940476 13:0.2 14:-0.998789 
2 1:-0.907761 2:-0.242123 3:-0.0748853 4:0.413794 5:0.441955 6:-0.095868 7:0.314554 8:-1 9:-0.997474 10:-0.999547 11:-0.99917 12:0.954022 13:0.914438 14:-1 
0.1390213214504855 1:0.886077 2:-0.229771 3:-0.168297 4:-0.178614 5:0.728714 6:0.618944 7:0.873655 8:0.360702 9:-0.949086 10:-0.953226 11:-0.99221 12:0.970066 13:0.956446 14:-0.951884 
2 1:-0.901957 2:-0.274992 3:-0.0838485 4:-0.141071 5:0.43893 6:-0.214114 7:0.950257 8:-1 9:-0.999014 10:-0.999769 11:-0.999564 12:0.9375 13:0.938776 14:-1 
0.2499770355490865 1:1 2:1 3:-0.0149178 4:0.642497 5:0.947585 6:-0.560032 7:0.950257 8:-0.01636 9:-0.939717 10:-0.981548 11:-0.929587 12:0.95459 13:0.950706 14:-0.984134 
2 1:0.611991 2:-0.201089 3:-0.217275 4:0.615366 5:0.758132 6:-0.678386 7:0.594104 8:-0.451686 9:-0.967485 10:-0.995547 11:-0.957564 12:0.911678 13:0.928308 14:-1 
2 1:0.527205 2:-0.662096 3:-0.134659 4:0.404223 5:0.385416 6:-0.956033 7:0.381019 8:-0.500592 9:-0.965817 10:-0.999123 11:-0.960026 12:0.947826 13:0.86056 14:-1 
0.03098551417910535 1:0.690608 2:-0.149587 3:-0.0560646 4:-0.152429 5:0.802914 6:0.871172 7:0.17383 8:-1 9:-0.988277 10:-0.993872 11:-0.999676 12:0.979402 13:0.931034 14:-0.993423 
2 1:-0.186766 2:-0.223281 3:-0.108181 4:0.474131 5:0.692476 6:-0.07873 7:0.17383 8:-1 9:-0.995949 10:-0.998882 11:-0.997993 12:0.968468 13:0.936508 14:-1 
2 1:-0.0534689 2:-0.257197 3:-0.109195 4:0.499609 5:0.739552 6:0.242382 7:0.507375 8:-1 9:-0.989636 10:-0.995683 11:-0.997087 12:0.941606 13:0.909502 14:-0.998373 
1.213973259692285 1:0.776496 2:-0.15838 3:-0.0151425 4:-0.220871 5:0.624697 6:-0.528624 7:1 8:-0.252068 9:-0.961466 10:-0.990427 11:-0.952872 12:0.982252 13:0.943452 14:-0.995763 
1.153479607422917 1:0.602115 2:-0.159426 3:-0.147268 4:0.317654 5:0.385529 6:-0.19841 7:0.17383 8:-1 9:-0.982296 10:-0.993387 11:-0.987107 12:0.948294 13:0.930628 14:-1 
1.013466024883396 1:0.554064 2:-0.377996 3:-0.276531 4:-0.176477 5:0.778798 6:-0.57377 7:0.381019 8:-0.143728 9:-0.965692 10:-0.991925 11:-0.972687 12:0.94964 13:0.95453 14:-0.994644 
0.7904752493194684 1:0.778223 2:-0.179106 3:-0.0738841 4:0.663463 5:0.930117 6:-0.920565 7:-0.0644836 8:0.022728 9:-0.984516 10:-0.999199 11:-0.983485 12:0.964602 13:0.951282 14:-1 
0.5413632720889212 1:0.978034 2:-0.00994452 3:0.478594 4:-0.281971 5:-0.0813685 6:1 7:0.786915 8:-1 9:-0.987199 10:-0.98772 11:-0.999967 12:0.994426 13:0.555556 14:-0.988046 
1.410992945101927 1:-0.157993 2:-0.339475 3:-0.0429073 4:-0.201317 5:0.254027 6:0.715664 7:0.873655 8:-1 9:-0.996536 10:-0.998264 11:-0.999764 12:0.885608 13:0.642858 14:-0.998289 
1.543639368927165 1:0.557389 2:-0.326285 3:-0.187408 4:0.698883 5:0.956105 6:-0.52564 7:0.786915 8:-0.17893 9:-0.979849 10:-0.994295 11:-0.980003 12:0.971284 13:0.960738 14:-1 
2 1:-0.187712 2:-0.183712 3:-0.242307 4:-0.177097 5:0.36495 6:-0.106258 7:0.594104 8:-1 9:-0.986567 10:-0.995264 11:-0.991106 12:0.929962 13:0.925962 14:-1 
2 1:0.558856 2:-0.191668 3:-0.0522335 4:-0.202389 5:0.680177 6:-0.345866 7:0.710322 8:-1 9:-0.99355 10:-0.999151 11:-0.997347 12:0.992728 13:0.918782 14:-1 
2 1:-0.376831 2:-0.25929 3:-0.120004 4:0.418457 5:0.685008 6:0.166882 7:0.381019 8:-1 9:-0.990877 10:-0.997845 11:-0.997946 12:0.966718 13:0.948718 14:-0.999814 
0.4204371263598427 1:0.892355 2:-0.0593531 3:-0.0482372 4:-0.170766 5:0.946336 6:-0.580892 7:-0.10572 8:0.05919 9:-0.984082 10:-0.996046 11:-0.986246 12:0.987512 13:0.931754 14:-1 
0.03619553177543151 1:0.98979 2:0.206951 3:-0.0381902 4:0.553231 5:0.961036 6:-0.861865 7:-0.524091 8:0.02321 9:-0.946598 10:-0.994815 11:-0.925488 12:0.94541 13:0.952738 14:-0.996517 
2 1:0.967841 2:0.0220873 3:-0.0666655 4:0.88052 5:0.99221 6:0.392698 7:0.0147391 8:-1 9:-0.999936 10:-0.999952 11:-0.999986 12:0.636364 13:1 14:-0.999958 
2 1:0.996575 2:0.981576 3:-0.0714994 4:0.537143 5:0.932942 6:-0.99957 7:0.873655 8:-0.25 9:-0.952585 10:-0.999988 11:-0.933347 12:1 13:0.947872 14:-1 
2 1:-0.00611657 2:-0.278551 3:-0.119661 4:0.41696 5:0.678829 6:-0.478086 7:0.594104 8:-1 9:-0.995499 10:-0.998913 11:-0.996634 12:0.943462 13:0.920318 14:-1 
2 1:0.79923 2:-0.149168 3:-0.051905 4:0.63746 5:0.900383 6:0.444968 7:0.873655 8:-1 9:-0.987837 10:-0.991318 11:-0.996103 12:0.942626 13:0.921052 14:-0.994191 
2 1:-0.242848 2:-0.257406 3:-0.0626736 4:0.252777 5:0.715383 6:-0.278506 7:-0.267431 8:-1 9:-0.997263 10:-0.999474 11:-0.998899 12:0.972222 13:0.944444 14:-1 
2 1:-0.550005 2:-0.216581 3:-0.040211 4:-0.172717 5:0.724311 6:0.173986 7:-0.0147381 8:-1 9:-0.995422 10:-0.999038 11:-0.998741 12:1 13:0.954372 14:-1 
2 1:0.826422 2:-0.132419 3:-0.0127819 4:-0.269151 5:0.747188 6:-0.632326 7:1 8:-0.334402 9:-0.968417 10:-0.994357 11:-0.9603 12:0.89788 13:0.919972 14:-1 
2 1:0.826153 2:-0.237936 3:-0.58556 4:0.4597 5:0.632228 6:-0.433642 7:0.786915 8:-0.489864 9:-0.811906 10:-0.943865 11:-0.83018 12:0.964856 13:0.972766 14:-0.978776 
2 1:-0.254543 2:-0.179943 3:-0.101241 4:0.52404 5:0.788002 6:-0.233808 7:0.376778 8:-1 9:-0.993859 10:-0.998654 11:-0.997805 12:0.951662 13:0.972332 14:-1 
0.3032254393870348 1:0.959055 2:-0.0327646 3:-0.0461204 4:0.677494 5:0.978411 6:0.454586 7:1 8:0.050848 9:-0.990599 10:-0.991067 11:-0.996284 12:0.94717 13:0.970976 14:-0.993607 
1.214591414619363 1:0.068285 2:-0.575212 3:-0.0959856 4:-0.0725829 5:0.289252 6:-0.444402 7:-0.10572 8:-0.044 9:-0.994548 10:-0.997873 11:-0.995072 12:0.995516 13:0.934148 14:-1 
1.95561000561692 1:0.944039 2:-0.0396734 3:0.0491928 4:0.494357 5:0.867671 6:0.654422 7:-0.0147381 8:-1 9:-0.9756 10:-0.981059 11:-0.995331 12:0.967714 13:0.959142 14:-0.984349 
0.486879745827635 1:0.972226 2:-0.0354862 3:-0.0391571 4:0.398891 5:0.883416 6:-0.565634 7:0.786915 8:-0.09772 9:-0.959954 10:-0.990739 11:-0.967302 12:0.945766 13:0.934656 14:-1 
0.1170659520178402 1:0.889941 2:-0.336334 3:-0.145731 4:0.707003 5:0.949019 6:-0.631398 7:0.710322 8:-0.164638 9:-0.954885 10:-0.989777 11:-0.950878 12:0.954262 13:0.952186 14:-0.996589 
0.7460183672286388 1:0.31231 2:-0.504449 3:-0.641205 4:0.293246 5:0.335478 6:-0.145624 7:-0.524091 8:-0.154002 9:-0.963121 10:-0.9875 11:-0.97375 12:0.905694 13:0.740598 14:-1 
2 1:-0.0762031 2:-0.273527 3:-0.0764571 4:0.312494 5:0.502459 6:0.102888 7:0.376778 8:-1 9:-0.996705 10:-0.999325 11:-0.999112 12:0.94096 13:0.86 14:-1 
0.6185211840927536 1:0.941877 2:-0.136816 3:0.0161437 4:0.629766 5:0.903106 6:0.024284 7:0.594104 8:-0.073246 9:-0.960939 10:-0.973921 11:-0.973454 12:0.946394 13:0.929472 14:-1 
2 1:-0.0136353 2:-0.323145 3:-0.113981 4:0.46604 5:0.472068 6:-0.52072 7:0.391157 8:-1 9:-0.992102 10:-0.998714 11:-0.994475 12:0.944304 13:0.966694 14:-1 
0.8609581535094513 1:0.983534 2:0.00764158 3:-0.0267194 4:0.716226 5:0.959329 6:-0.726372 7:-0.0147381 8:0.00145 9:-0.949612 10:-0.989883 11:-0.936595 12:0.944834 13:0.953034 14:-0.992597 
1.641584938442737 1:0.915857 2:-0.137444 3:-0.0455442 4:0.683663 5:0.953465 6:-0.966277 7:0.381019 8:-0.017544 9:-0.960601 10:-0.998953 11:-0.976538 12:0.971292 13:0.953334 14:-0.986982 
2 1:0.165273 2:-0.661468 3:-0.205393 4:0.6009 5:0.873906 6:-0.760876 7:0.786915 8:-0.467386 9:-0.975632 10:-0.997115 11:-0.976101 12:0.950752 13:0.952156 14:-1 
2 1:0.972035 2:-0.0151785 3:-0.0206264 4:-0.162949 5:0.964409 6:0.107774 7:0.594104 8:-0.107142 9:-0.967951 10:-0.981663 11:-0.976949 12:0.999602 13:0.9601 14:-0.989837 
1.441763468549048 1:0.160633 2:-0.186434 3:-0.15035 4:0.527474 5:0.732124 6:-0.099154 7:0.710322 8:-1 9:-0.98733 10:-0.996077 11:-0.993974 12:0.945278 13:0.90842 14:-1 
2 1:0.568984 2:-0.390558 3:-0.178793 4:0.511006 5:0.875351 6:-0.951604 7:0.17383 8:-0.501796 9:-0.973211 10:-0.999129 11:-0.968269 12:0.918032 13:0.938968 14:-1 
0.1844134665219324 1:0.026398 2:-0.171569 3:-0.117369 4:0.508871 5:0.699053 6:-0.009502 7:0.17383 8:-1 9:-0.989285 10:-0.995769 11:-0.994515 12:0.948316 13:0.938162 14:-1 
0.8316144372854821 1:0.574193 2:-0.314142 3:0.0792895 4:-0.164531 5:0.94125 6:-0.312966 7:-0.0644836 8:-1 9:-0.994185 10:-0.998253 11:-0.99596 12:0.995976 13:0.968254 14:-1 
0.7053465705845496 1:0.98788 2:-0.00282634 3:0.0873522 4:-0.175311 5:0.958064 6:0.198144 7:0.594104 8:-0.017294 9:-0.934527 10:-0.952229 11:-0.959529 12:0.974718 13:0.956178 14:-0.960871 
2 1:-0.505092 2:-0.245263 3:-0.0908986 4:0.175646 5:0.329123 6:0.022246 7:0.507375 8:-1 9:-0.996698 10:-0.9992 11:-0.998826 12:0.96988 13:0.666666 14:-1 
1.733980608073384 1:0.854487 2:-0.263059 3:-0.075142 4:-0.321589 5:0.273388 6:-0.828206 7:0.594104 8:-0.352228 9:-0.921975 10:-0.991553 11:-0.921729 12:0.338444 13:0.72252 14:-0.993766 
1.091640354937561 1:0.873749 2:-0.305349 3:-0.095136 4:0.698451 5:0.949122 6:-0.754666 7:0.544362 8:-0.226502 9:-0.963399 10:-0.994682 11:-0.955703 12:0.95912 13:0.950158 14:-1 
2 1:0.774712 2:-0.222024 3:-0.137222 4:0.59426 5:0.910121 6:-0.879555 7:0.507375 8:-0.476572 9:-0.97027 10:-0.998176 11:-0.961239 12:0.94017 13:0.941936 14:-1 
0.01388166154934017 1:0.993953 2:-0.0260651 3:-0.0187034 4:0.71426 5:0.967856 6:-0.828993 7:0.507375 8:0.010274 9:-0.703912 10:-0.975986 11:-0.632808 12:0.973082 13:0.972794 14:-0.980519 
0.0812811349333372 1:0.997013 2:0.942845 3:-0.0788599 4:-0.00544286 5:0.952937 6:-0.975938 7:0.74731 8:0.06087 9:-0.944412 10:-0.999038 11:-0.920562 12:0.992064 13:0.956164 14:-0.999537 
1.140799388645354 1:0.985188 2:-0.036533 3:0.0127363 4:0.497354 5:0.956686 6:-0.350178 7:0.381019 8:0.019326 9:-0.953437 10:-0.979878 11:-0.952855 12:0.963866 13:0.949546 14:-0.983506 
0.747763223554166 1:0.974744 2:-0.0403015 3:-0.0221711 4:0.692366 5:0.952655 6:-0.27602 7:0.786915 8:-0.027022 9:-0.913416 10:-0.958929 11:-0.921976 12:0.966182 13:0.958456 14:-0.965383 
2 1:-0.314827 2:-0.300115 3:-0.0762752 4:0.458823 5:0.6522 6:-0.212496 7:0.873655 8:-1 9:-0.998118 10:-0.999485 11:-0.999075 12:0.921568 13:0.960784 14:-1 
2 1:-0.58502 2:-0.294672 3:-0.0623015 4:0.282354 5:0.367669 6:0.0309 7:0.594104 8:-1 9:-0.999611 10:-0.999945 11:-0.999903 12:0.941176 13:0.904762 14:-1 
1.451341170581128 1:0.764627 2:-0.38323 3:-0.118517 4:-0.189086 5:0.867721 6:-0.918 7:-0.0644836 8:0.040152 9:-0.974503 10:-0.998546 11:-0.969788 12:0.995134 13:0.920704 14:-1 
2 1:0.526485 2:-0.305768 3:-0.187077 4:0.576789 5:0.855246 6:-0.773114 7:0.74731 8:-0.445888 9:-0.978063 10:-0.99761 11:-0.974192 12:0.913942 13:0.931082 14:-1 
2 1:0.886776 2:-0.273945 3:-0.0806007 4:-0.127546 5:0.838322 6:-0.982553 7:0.507375 8:-0.469614 9:-0.956011 10:-0.999348 11:-0.941472 12:1 13:0.937328 14:-0.999991 
2 1:0.657624 2:-0.387836 3:-0.440071 4:0.669563 5:0.95047 6:-0.466136 7:0.710322 8:-0.547714 9:-0.894219 10:-0.97806 11:-0.89163 12:0.96145 13:0.967658 14:-0.99924 
2 1:0.57313 2:-0.568722 3:-0.275918 4:-0.216217 5:0.83969 6:-0.943374 7:0.507375 8:-0.537084 9:-0.955836 10:-0.998283 11:-0.963869 12:0.966736 13:0.917034 14:-1 
2 1:0.98788 2:-0.00282634 3:0.0873522 4:-0.175311 5:0.958064 6:0.198144 7:0.594104 8:-0.017294 9:-0.934527 10:-0.952229 11:-0.959529 12:0.974718 13:0.956178 14:-0.960871 
2 1:0.0790118 2:-0.163823 3:-0.235262 4:0.603923 5:0.880384 6:-0.1718 7:0.17383 8:-1 9:-0.984988 10:-0.994523 11:-0.989634 12:0.950882 13:0.959896 14:-1 
0.5341018573571115 1:0.989252 2:0.0174814 3:-0.019797 4:-0.172771 5:0.957025 6:-0.7476 7:0.710322 8:0.054264 9:-0.95663 10:-0.993101 11:-0.94398 12:0.99039 13:0.952138 14:-0.996065 
1.924985359678636 1:0.255975 2:-0.587145 3:-0.0839387 4:-0.126257 5:0.148068 6:-0.903425 7:0.314554 8:-0.357466 9:-0.992261 10:-0.999597 11:-0.991753 12:0.92381 13:0.975582 14:-1 
1.79930771801033 1:-0.346048 2:-0.322935 3:-0.0713521 4:0.281369 5:0.52336 6:0.40265 7:0.873655 8:-1 9:-0.99808 10:-0.999419 11:-0.999622 12:0.963134 13:0.903614 14:-0.999726 
0.6137616519668025 1:0.777837 2:-0.236261 3:-0.301603 4:0.696317 5:0.898261 6:0.39475 7:-0.524091 8:0.242604 9:-0.935787 10:-0.935615 11:-0.977894 12:0.943156 13:0.936 14:-0.939976 
2 1:-0.0048837 2:-0.306187 3:-0.112126 4:0.360849 5:0.56693 6:-0.319848 7:0.17383 8:-1 9:-0.993043 10:-0.99857 11:-0.996055 12:0.937238 13:0.926008 14:-1 
2 1:0.802807 2:-0.206323 3:-0.142533 4:0.687009 5:0.962327 6:-0.840706 7:0.314554 8:-0.50762 9:-0.952317 10:-0.996303 11:-0.938527 12:0.968422 13:0.961612 14:-1 
1.535713302648467 1:0.705059 2:-0.303046 3:-0.139806 4:0.676997 5:0.931056 6:-0.234056 7:0.507375 8:-0.104232 9:-0.960193 10:-0.982831 11:-0.967056 12:0.957338 13:0.948562 14:-0.995758 
2 1:0.98788 2:-0.00282634 3:0.0873522 4:-0.175311 5:0.958064 6:0.198144 7:0.594104 8:-0.017294 9:-0.934527 10:-0.952229 11:-0.959529 12:0.974718 13:0.956178 14:-0.960871 
2 1:0.094466 2:-0.323773 3:-0.114077 4:0.483434 5:0.832452 6:-0.535794 7:-0.267431 8:-1 9:-0.994867 10:-0.999167 11:-0.996441 12:0.939164 13:0.933904 14:-1 
1.626028347673623 1:0.512442 2:-0.165288 3:-0.0604669 4:0.64794 5:0.875304 6:0.756336 7:0.74731 8:-1 9:-0.984491 10:-0.988885 11:-0.998228 12:0.958402 13:0.947644 14:-0.989445 
0.1841045476552697 1:0.987324 2:0.18099 3:0.000589728 4:0.442603 5:0.961743 6:-0.345814 7:0.391157 8:-0.042556 9:-0.947054 10:-0.97677 11:-0.946134 12:0.957706 13:0.957382 14:-0.981631 
2 1:0.996935 2:0.980739 3:-0.0714965 4:0.714286 5:0.917164 6:-0.999576 7:0.710322 8:-0.25 9:-0.952247 10:-0.999989 11:-0.929804 12:1 13:0.944414 14:-1 
0.8536141143081228 1:0.98844 2:0.0612373 3:-0.0686196 4:0.595763 5:0.7945 6:-0.77501 7:0.786915 8:-0.055036 9:-0.951647 10:-0.992701 11:-0.943058 12:0.93421 13:0.847902 14:-0.993616 
2 1:-0.490966 2:-0.34429 3:-0.0787667 4:0.00266571 5:0.776836 6:0.563528 7:0.17383 8:-1 9:-0.995866 10:-0.999041 11:-0.999504 12:0.988096 13:0.927928 14:-0.999495 
1.152010613193791 1:0.920124 2:-0.0279493 3:-0.0396599 4:-0.201406 5:0.663104 6:-0.606508 7:0.507375 8:-1 9:-0.995458 10:-0.999336 11:-0.996632 12:0.844262 13:0.95448 14:-1 
2 1:0.46597 2:-0.507171 3:-0.123477 4:0.707877 5:0.626763 6:-0.674464 7:0.786915 8:-0.263516 9:-0.976797 10:-0.996485 11:-0.978768 12:0.942916 13:0.956946 14:-1 
0.2540402067649458 1:0.985284 2:0.0187376 3:-0.0423183 4:0.603629 5:0.944042 6:0.619116 7:0.17383 8:-0.057356 9:-0.947535 10:-0.944503 11:-0.984234 12:0.95658 13:0.953918 14:-0.943819 
0.7195758409971 1:-0.0527614 2:-0.276458 3:-0.0389675 4:0.655117 5:0.679244 6:0.344566 7:-1 8:-1 9:-0.993068 10:-0.995717 11:-0.998167 12:0.971644 13:0.974812 14:-0.996964 
2 1:0.476649 2:-0.253847 3:-0.0784867 4:0.626083 5:0.895313 6:0.342088 7:-0.524091 8:-1 9:-0.995075 10:-0.99805 11:-0.998608 12:0.94387 13:0.921568 14:-0.999375 
0.4565291388189178 1:0.987424 2:-0.0208312 3:-0.0763717 4:0.688346 5:0.958931 6:-0.970367 7:0.381019 8:-0.181286 9:-0.931337 10:-0.998607 11:-0.901319 12:0.980952 13:0.955906 14:-0.999353 
2 1:-0.128717 2:-0.487072 3:-0.182695 4:0.619517 5:0.909823 6:-0.625852 7:0.314554 8:-0.286474 9:-0.990172 10:-0.998048 11:-0.990071 12:0.93307 13:0.95113 14:-1 
0.06550325707021902 1:0.65238 2:-0.538365 3:-0.0409202 4:0.571274 5:0.890199 6:0.283368 7:-0.0147381 8:-0.018244 9:-0.951912 10:-0.956208 11:-0.977976 12:0.946526 13:0.93116 14:-0.960189 
0.5002518863048637 1:0.685403 2:-0.107924 3:-0.677898 4:-0.0904714 5:0.641651 6:0.013454 7:0.74731 8:7e-05 9:-0.942891 10:-0.957366 11:-0.968901 12:0.989072 13:0.981486 14:-0.973239 
1.394326942905879 1:0.888248 2:-0.277714 3:-0.256549 4:0.709366 5:0.946117 6:-0.077952 7:-0.267431 8:0.001122 9:-0.947602 10:-0.968472 11:-0.962473 12:0.952018 13:0.952168 14:-0.983325 
0.6506499676037383 1:0.535927 2:-0.153146 3:0.0912503 4:-0.172477 5:0.908451 6:0.155186 7:1 8:-1 9:-0.968563 10:-0.98969 11:-0.988944 12:1 13:0.925832 14:-1 
1.000180689775076 1:0.945033 2:0.019575 3:-0.0507902 4:-0.172651 5:0.927912 6:-0.718396 7:0.873655 8:-1 9:-0.980222 10:-0.998171 11:-0.981267 12:1 13:0.946236 14:-1 
0.1178117860665285 1:0.784913 2:-0.201926 3:-0.000327027 4:0.669349 5:0.941764 6:0.363462 7:0.950257 8:-0.032864 9:-0.961479 10:-0.968579 11:-0.983213 12:0.947782 13:0.953986 14:-0.977218 
2 1:0.971848 2:-0.0262745 3:-0.0781881 4:0.300617 5:0.83284 6:-0.986118 7:0.786915 8:-0.522858 9:-0.946384 10:-0.999279 11:-0.927401 12:0.956896 13:0.96066 14:-1 
2 1:0.587703 2:-0.489375 3:-0.184503 4:0.620763 5:0.903032 6:-0.844542 7:0.376778 8:-0.462462 9:-0.968828 10:-0.997639 11:-0.966483 12:0.962086 13:0.9441 14:-1 
2 1:0.987893 2:0.0442793 3:-0.018465 4:0.681929 5:0.955039 6:0.17715 7:0.786915 8:-0.018274 9:-0.939634 10:-0.947524 11:-0.972813 12:0.954988 13:0.949188 14:-0.944597 
2 1:-0.541791 2:-0.274783 3:-0.070173 4:0.314971 5:0.674981 6:-0.403214 7:0.873655 8:-1 9:-0.996896 10:-0.999625 11:-0.998963 12:0.968 13:0.91342 14:-1 
2 1:-0.369902 2:-0.35078 3:-0.112063 4:0.519946 5:0.872409 6:-0.302156 7:0.594104 8:-1 9:-0.993346 10:-0.998832 11:-0.996979 12:0.958042 13:0.945946 14:-1 
0.7950581968989242 1:0.986794 2:-0.0130849 3:-0.032208 4:0.647054 5:0.945108 6:-0.700258 7:0.507375 8:-0.074348 9:-0.927267 10:-0.984592 11:-0.918906 12:0.9358 13:0.942338 14:-0.980057 
0.4216858060496426 1:0.79136 2:-0.382812 3:-0.404108 4:0.684591 5:0.952081 6:-0.00772 7:1 8:-0.101206 9:-0.837247 10:-0.910086 11:-0.980327 12:0.964424 13:0.96468 14:-0.918603 
2 1:0.71187 2:-0.702711 3:-0.170674 4:0.173357 5:0.800002 6:-0.820761 7:0.507375 8:-0.495266 9:-0.952834 10:-0.995966 11:-0.946228 12:0.960838 13:0.945334 14:-1 
0.04063718586772493 1:0.544735 2:-0.159217 3:-0.245219 4:0.5936 5:0.833524 6:-0.261038 7:-0.0147381 8:-1 9:-0.980867 10:-0.992634 11:-0.984753 12:0.95847 13:0.93718 14:-1 
1.499599196107735 1:0.549054 2:-0.505496 3:-0.460263 4:0.449631 5:0.886215 6:-0.957008 7:0.594104 8:-0.655982 9:-0.957067 10:-0.998259 11:-0.961555 12:0.935238 13:0.947222 14:-1 
0.2486753079045202 1:0.713377 2:-0.481419 3:-0.0253254 4:-0.362637 5:0.597826 6:-0.997844 7:0.710322 8:-0.148148 9:-0.954164 10:-0.999893 11:-0.938459 12:0.923076 13:0.938008 14:-1 
0.08574108341496356 1:0.999813 2:0.98053 3:-0.0802672 4:0.697154 5:0.961584 6:-0.983819 7:0.314554 8:-0.002944 9:-0.796247 10:-0.99806 11:-0.726809 12:0.91954 13:0.969236 14:-0.998533 
1.662077585359099 1:0.797329 2:-0.438501 3:-0.0767984 4:-0.172529 5:0.334559 6:-0.963545 7:0.314554 8:-0.014926 9:-0.991049 10:-0.999756 11:-0.987985 12:1 13:0.951472 14:-1 
0.1708380622020924 1:0.963505 2:0.00785094 3:-0.0502638 4:0.643329 5:0.605918 6:-0.854231 7:0.873655 8:-0.031098 9:-0.94796 10:-0.994564 11:-0.935262 12:0.95443 13:0.93271 14:-0.99784 
0.5116197890793237 1:0.986334 2:0.0262745 3:-0.0664107 4:-0.171429 5:0.956341 6:-0.995405 7:0.923397 8:0.05 9:-0.942808 10:-0.999772 11:-0.916902 12:1 13:0.954296 14:-0.999215 
2 1:0.745665 2:-0.481001 3:-0.137375 4:-0.181149 5:0.954196 6:-0.985248 7:0.544362 8:-0.396226 9:-0.966458 10:-0.99965 11:-0.960768 12:0.979382 13:0.956166 14:-1 
2 1:-0.0448259 2:-0.213441 3:-0.0929875 4:0.436369 5:0.751847 6:-0.022246 7:-0.267431 8:-1 9:-0.989489 10:-0.997656 11:-0.996985 12:0.931782 13:0.885714 14:-1 
2 1:0.188394 2:-0.218675 3:-0.0614351 4:0.537294 5:0.62396 6:-0.226254 7:0.381019 8:-1 9:-0.984261 10:-0.997031 11:-0.99427 12:0.949334 13:0.747994 14:-1 
2 1:0.0304569 2:-0.301162 3:-0.0956692 4:0.444709 5:0.639636 6:-0.365204 7:0.314554 8:-1 9:-0.99407 10:-0.998692 11:-0.997151 12:0.95679 13:0.933934 14:-1 
2 1:0.570798 2:-0.457553 3:-0.315109 4:-0.205289 5:0.612396 6:-0.58779 7:-0.10572 8:-0.399542 9:-0.956598 10:-0.992136 11:-0.951704 12:0.985112 13:0.930882 14:-1 
0.3746903240794709 1:0.987376 2:-0.0465822 3:-0.0622869 4:0.35798 5:0.625076 6:-0.939798 7:0.544362 8:-0.02738 9:-0.958624 10:-0.998021 11:-0.9997 12:0.943794 13:0.542858 14:-1 
0.7079231005047447 1:-0.304261 2:-0.298022 3:-0.0499117 4:0.658394 5:0.943282 6:-0.221744 7:-0.0147381 8:-1 9:-0.993005 10:-0.998683 11:-0.997584 12:0.952862 13:0.947154 14:-1 
0.2024113583104472 1:0.925772 2:-0.159217 3:0.0672107 4:0.657454 5:0.917961 6:-0.675266 7:1 8:-0.012584 9:-0.938728 10:-0.986188 11:-0.924673 12:0.939756 13:0.9416 14:-0.989926 
2 1:0.0274442 2:-0.328379 3:-0.19565 4:0.602654 5:0.863935 6:-0.402482 7:0.786915 8:-1 9:-0.984385 10:-0.996362 11:-0.989977 12:0.953538 13:0.945494 14:-1 
0.2394330990333891 1:0.96574 2:-0.430755 3:-0.0167174 4:0.34912 5:0.868833 6:-0.932064 7:-1 8:-0.077534 9:-0.973721 10:-0.998724 11:-0.967038 12:0.979452 13:0.945262 14:-1 
2 1:-0.282096 2:-0.235214 3:-0.0788861 4:0.137594 5:0.382372 6:-0.84734 7:0.873655 8:-1 9:-0.998619 10:-0.999917 11:-0.99879 12:0.947368 13:0.948148 14:-1 
0.6046256864256487 1:0.837371 2:-0.270805 3:-0.115615 4:0.490983 5:0.836888 6:-0.184702 7:0.376778 8:-0.042098 9:-0.98636 10:-0.994456 11:-0.989315 12:0.89069 13:0.901944 14:-1 
2 1:0.2008 2:-0.211138 3:-0.0770357 4:0.420917 5:0.423355 6:-0.50475 7:0.950257 8:-1 9:-0.99888 10:-0.99983 11:-0.99939 12:0.928572 13:0.911764 14:-1 
2 1:-0.410062 2:-0.179734 3:-0.151793 4:0.51276 5:0.718942 6:-0.06487 7:0.873655 8:-1 9:-0.99311 10:-0.997126 11:-0.996578 12:0.975342 13:0.939318 14:-1 
0.009202010950093056 1:0.569722 2:-0.239611 3:-0.0778841 4:0.0192857 5:0.383999 6:0.72515 7:0.710322 8:-1 9:-0.989464 10:-0.993896 11:-0.99861 12:0.975964 13:0.859532 14:-0.994639 
0.963005704207436 1:0.667313 2:-0.177222 3:-0.069775 4:-0.110297 5:0.716482 6:-0.199302 7:-1 8:-1 9:-0.995604 10:-0.999195 11:-0.998494 12:0.963964 13:0.933734 14:-1 
2 1:-0.371431 2:-0.309327 3:-0.115533 4:0.593411 5:0.764806 6:0.196802 7:0.381019 8:-1 9:-0.98984 10:-0.996008 11:-0.997227 12:0.947006 13:0.924398 14:-0.998418 
0.1335267730399322 1:0.988739 2:0.117136 3:0.510142 4:0.608903 5:0.8038 6:1 7:0.507375 8:-1 9:-0.954674 10:-0.940726 11:-0.999842 12:0.93972 13:0.906976 14:-0.935615 
1.816545742049094 1:0.776148 2:-0.303674 3:-0.316968 4:0.134549 5:0.556262 6:-0.95396 7:0.0147391 8:-0.57258 9:-0.95232 10:-0.998387 11:-0.950695 12:0.794184 13:0.943156 14:-0.997846 
0.4228255589355768 1:0.983847 2:-0.0541191 3:-0.0552686 4:0.668431 5:0.95063 6:-0.830293 7:0.381019 8:-0.022162 9:-0.951331 10:-0.994362 11:-0.95402 12:0.93415 13:0.941012 14:-0.982698 
2 1:0.663354 2:-0.27562 3:-0.0813632 4:0.319789 5:0.708075 6:-0.322298 7:-0.267431 8:-1 9:-0.988175 10:-0.997259 11:-0.993471 12:0.97672 13:0.922972 14:-1 
